digraph Tree {
node [shape=box] ;
0 [label="CASE_PROCESSING_DURATION <= 3.5\ngini = 0.111\nsamples = 133804\nvalue = [7895, 125909]"] ;
1 [label="gini = 0.0\nsamples = 3353\nvalue = [3353, 0]"] ;
0 -> 1 [labeldistance=2.5, labelangle=45, headlabel="True"] ;
2 [label="ANNUAL_PAID_PREVAILING_WAGE_RATIO <= 1.0\ngini = 0.067\nsamples = 130451\nvalue = [4542, 125909]"] ;
0 -> 2 [labeldistance=2.5, labelangle=-45, headlabel="False"] ;
3 [label="JOB_TITLE_SUBGROUP_assistant professor <= 0.5\ngini = 0.498\nsamples = 706\nvalue = [329, 377]"] ;
2 -> 3 ;
4 [label="ANNUAL_PAID_PREVAILING_WAGE_RATIO <= 1.0\ngini = 0.013\nsamples = 298\nvalue = [296, 2]"] ;
3 -> 4 ;
5 [label="WORK_STATE_CONNECTICUT <= 0.5\ngini = 0.007\nsamples = 294\nvalue = [293, 1]"] ;
4 -> 5 ;
6 [label="gini = 0.0\nsamples = 289\nvalue = [289, 0]"] ;
5 -> 6 ;
7 [label="MONTH_November <= 0.5\ngini = 0.32\nsamples = 5\nvalue = [4, 1]"] ;
5 -> 7 ;
8 [label="gini = 0.0\nsamples = 4\nvalue = [4, 0]"] ;
7 -> 8 ;
9 [label="gini = 0.0\nsamples = 1\nvalue = [0, 1]"] ;
7 -> 9 ;
10 [label="DAY_Tuesday <= 0.5\ngini = 0.375\nsamples = 4\nvalue = [3, 1]"] ;
4 -> 10 ;
11 [label="gini = 0.0\nsamples = 3\nvalue = [3, 0]"] ;
10 -> 11 ;
12 [label="gini = 0.0\nsamples = 1\nvalue = [0, 1]"] ;
10 -> 12 ;
13 [label="PAID_WAGE_SUBMITTED_UNIT <= 3.0\ngini = 0.149\nsamples = 408\nvalue = [33, 375]"] ;
3 -> 13 ;
14 [label="gini = 0.0\nsamples = 18\nvalue = [18, 0]"] ;
13 -> 14 ;
15 [label="PREVAILING_WAGE_SUBMITTED_UNIT <= 3.0\ngini = 0.074\nsamples = 390\nvalue = [15, 375]"] ;
13 -> 15 ;
16 [label="gini = 0.0\nsamples = 1\nvalue = [1, 0]"] ;
15 -> 16 ;
17 [label="WORK_STATE_WEST VIRGINIA <= 0.5\ngini = 0.069\nsamples = 389\nvalue = [14, 375]"] ;
15 -> 17 ;
18 [label="CASE_PROCESSING_DURATION <= 4.5\ngini = 0.065\nsamples = 387\nvalue = [13, 374]"] ;
17 -> 18 ;
19 [label="WORK_STATE_INDIANA <= 0.5\ngini = 0.214\nsamples = 41\nvalue = [5, 36]"] ;
18 -> 19 ;
20 [label="WORK_STATE_TENNESSEE <= 0.5\ngini = 0.142\nsamples = 39\nvalue = [3, 36]"] ;
19 -> 20 ;
21 [label="WORK_STATE_OREGON <= 0.5\ngini = 0.054\nsamples = 36\nvalue = [1, 35]"] ;
20 -> 21 ;
22 [label="gini = 0.0\nsamples = 35\nvalue = [0, 35]"] ;
21 -> 22 ;
23 [label="gini = 0.0\nsamples = 1\nvalue = [1, 0]"] ;
21 -> 23 ;
24 [label="CASE_RECEIVED_MONTH_June <= 0.5\ngini = 0.444\nsamples = 3\nvalue = [2, 1]"] ;
20 -> 24 ;
25 [label="gini = 0.0\nsamples = 2\nvalue = [2, 0]"] ;
24 -> 25 ;
26 [label="gini = 0.0\nsamples = 1\nvalue = [0, 1]"] ;
24 -> 26 ;
27 [label="gini = 0.0\nsamples = 2\nvalue = [2, 0]"] ;
19 -> 27 ;
28 [label="CASE_RECEIVED_MONTH_March <= 0.5\ngini = 0.045\nsamples = 346\nvalue = [8, 338]"] ;
18 -> 28 ;
29 [label="WORK_STATE_OHIO <= 0.5\ngini = 0.025\nsamples = 313\nvalue = [4, 309]"] ;
28 -> 29 ;
30 [label="WORK_STATE_TEXAS <= 0.5\ngini = 0.014\nsamples = 285\nvalue = [2, 283]"] ;
29 -> 30 ;
31 [label="PREVAILING_WAGE_PER_YEAR <= 32812.0\ngini = 0.007\nsamples = 275\nvalue = [1, 274]"] ;
30 -> 31 ;
32 [label="CASE_PROCESSING_DURATION <= 6.5\ngini = 0.08\nsamples = 24\nvalue = [1, 23]"] ;
31 -> 32 ;
33 [label="gini = 0.0\nsamples = 20\nvalue = [0, 20]"] ;
32 -> 33 ;
34 [label="PREVAILING_WAGE_PER_YEAR <= 31990.4\ngini = 0.375\nsamples = 4\nvalue = [1, 3]"] ;
32 -> 34 ;
35 [label="gini = 0.0\nsamples = 3\nvalue = [0, 3]"] ;
34 -> 35 ;
36 [label="gini = 0.0\nsamples = 1\nvalue = [1, 0]"] ;
34 -> 36 ;
37 [label="gini = 0.0\nsamples = 251\nvalue = [0, 251]"] ;
31 -> 37 ;
38 [label="PREVAILING_WAGE_PER_YEAR <= 106548.0\ngini = 0.18\nsamples = 10\nvalue = [1, 9]"] ;
30 -> 38 ;
39 [label="gini = 0.0\nsamples = 8\nvalue = [0, 8]"] ;
38 -> 39 ;
40 [label="PAID_WAGE_PER_YEAR <= 88751.523\ngini = 0.5\nsamples = 2\nvalue = [1, 1]"] ;
38 -> 40 ;
41 [label="gini = 0.0\nsamples = 1\nvalue = [1, 0]"] ;
40 -> 41 ;
42 [label="gini = 0.0\nsamples = 1\nvalue = [0, 1]"] ;
40 -> 42 ;
43 [label="DAY_Monday <= 0.5\ngini = 0.133\nsamples = 28\nvalue = [2, 26]"] ;
29 -> 43 ;
44 [label="PAID_WAGE_PER_YEAR <= 72029.881\ngini = 0.071\nsamples = 27\nvalue = [1, 26]"] ;
43 -> 44 ;
45 [label="gini = 0.0\nsamples = 23\nvalue = [0, 23]"] ;
44 -> 45 ;
46 [label="CASE_RECEIVED_WEEKDAY_Friday <= 0.5\ngini = 0.375\nsamples = 4\nvalue = [1, 3]"] ;
44 -> 46 ;
47 [label="gini = 0.0\nsamples = 3\nvalue = [0, 3]"] ;
46 -> 47 ;
48 [label="gini = 0.0\nsamples = 1\nvalue = [1, 0]"] ;
46 -> 48 ;
49 [label="gini = 0.0\nsamples = 1\nvalue = [1, 0]"] ;
43 -> 49 ;
50 [label="WORK_STATE_MASSACHUSETTS <= 0.5\ngini = 0.213\nsamples = 33\nvalue = [4, 29]"] ;
28 -> 50 ;
51 [label="CASE_RECEIVED_WEEKDAY_Wednesday <= 0.5\ngini = 0.175\nsamples = 31\nvalue = [3, 28]"] ;
50 -> 51 ;
52 [label="PREVAILING_WAGE_PER_YEAR <= 97198.398\ngini = 0.08\nsamples = 24\nvalue = [1, 23]"] ;
51 -> 52 ;
53 [label="gini = 0.0\nsamples = 19\nvalue = [0, 19]"] ;
52 -> 53 ;
54 [label="WORK_STATE_ALABAMA <= 0.5\ngini = 0.32\nsamples = 5\nvalue = [1, 4]"] ;
52 -> 54 ;
55 [label="gini = 0.0\nsamples = 4\nvalue = [0, 4]"] ;
54 -> 55 ;
56 [label="gini = 0.0\nsamples = 1\nvalue = [1, 0]"] ;
54 -> 56 ;
57 [label="ANNUAL_PAID_PREVAILING_WAGE_RATIO <= 0.614\ngini = 0.408\nsamples = 7\nvalue = [2, 5]"] ;
51 -> 57 ;
58 [label="gini = 0.0\nsamples = 1\nvalue = [1, 0]"] ;
57 -> 58 ;
59 [label="CASE_PROCESSING_DURATION <= 6.5\ngini = 0.278\nsamples = 6\nvalue = [1, 5]"] ;
57 -> 59 ;
60 [label="gini = 0.0\nsamples = 4\nvalue = [0, 4]"] ;
59 -> 60 ;
61 [label="ANNUAL_PAID_PREVAILING_WAGE_RATIO <= 0.843\ngini = 0.5\nsamples = 2\nvalue = [1, 1]"] ;
59 -> 61 ;
62 [label="gini = 0.0\nsamples = 1\nvalue = [1, 0]"] ;
61 -> 62 ;
63 [label="gini = 0.0\nsamples = 1\nvalue = [0, 1]"] ;
61 -> 63 ;
64 [label="CASE_PROCESSING_DURATION <= 8.5\ngini = 0.5\nsamples = 2\nvalue = [1, 1]"] ;
50 -> 64 ;
65 [label="gini = 0.0\nsamples = 1\nvalue = [0, 1]"] ;
64 -> 65 ;
66 [label="gini = 0.0\nsamples = 1\nvalue = [1, 0]"] ;
64 -> 66 ;
67 [label="PAID_WAGE_PER_YEAR <= 85873.32\ngini = 0.5\nsamples = 2\nvalue = [1, 1]"] ;
17 -> 67 ;
68 [label="gini = 0.0\nsamples = 1\nvalue = [0, 1]"] ;
67 -> 68 ;
69 [label="gini = 0.0\nsamples = 1\nvalue = [1, 0]"] ;
67 -> 69 ;
70 [label="CASE_PROCESSING_DURATION <= 206.5\ngini = 0.063\nsamples = 129745\nvalue = [4213, 125532]"] ;
2 -> 70 ;
71 [label="PREVAILING_WAGE_PER_YEAR <= 13290.0\ngini = 0.047\nsamples = 120853\nvalue = [2893, 117960]"] ;
70 -> 71 ;
72 [label="gini = 0.0\nsamples = 26\nvalue = [26, 0]"] ;
71 -> 72 ;
73 [label="CASE_PROCESSING_DURATION <= 7.5\ngini = 0.046\nsamples = 120827\nvalue = [2867, 117960]"] ;
71 -> 73 ;
74 [label="VISA_CLASS_greencard <= 0.5\ngini = 0.038\nsamples = 101172\nvalue = [1945, 99227]"] ;
73 -> 74 ;
75 [label="CASE_PROCESSING_DURATION <= 5.5\ngini = 0.037\nsamples = 101153\nvalue = [1926, 99227]"] ;
74 -> 75 ;
76 [label="CASE_RECEIVED_WEEKDAY_Friday <= 0.5\ngini = 0.087\nsamples = 20530\nvalue = [932, 19598]"] ;
75 -> 76 ;
77 [label="DAY_Thursday <= 0.5\ngini = 0.06\nsamples = 20220\nvalue = [622, 19598]"] ;
76 -> 77 ;
78 [label="CASE_RECEIVED_WEEKDAY_Wednesday <= 0.5\ngini = 0.035\nsamples = 19958\nvalue = [360, 19598]"] ;
77 -> 78 ;
79 [label="CASE_RECEIVED_WEEKDAY_Tuesday <= 0.5\ngini = 0.018\nsamples = 19774\nvalue = [176, 19598]"] ;
78 -> 79 ;
80 [label="WORK_STATE_NORTHERN MARIANA ISLANDS <= 0.5\ngini = 0.017\nsamples = 19769\nvalue = [171, 19598]"] ;
79 -> 80 ;
81 [label="PAID_WAGE_PER_YEAR <= 1491200.0\ngini = 0.017\nsamples = 19765\nvalue = [168, 19597]"] ;
80 -> 81 ;
82 [label="gini = 0.017\nsamples = 19764\nvalue = [167, 19597]"] ;
81 -> 82 ;
83 [label="gini = 0.0\nsamples = 1\nvalue = [1, 0]"] ;
81 -> 83 ;
84 [label="CASE_RECEIVED_MONTH_March <= 0.5\ngini = 0.375\nsamples = 4\nvalue = [3, 1]"] ;
80 -> 84 ;
85 [label="gini = 0.0\nsamples = 3\nvalue = [3, 0]"] ;
84 -> 85 ;
86 [label="gini = 0.0\nsamples = 1\nvalue = [0, 1]"] ;
84 -> 86 ;
87 [label="gini = 0.0\nsamples = 5\nvalue = [5, 0]"] ;
79 -> 87 ;
88 [label="gini = 0.0\nsamples = 184\nvalue = [184, 0]"] ;
78 -> 88 ;
89 [label="gini = 0.0\nsamples = 262\nvalue = [262, 0]"] ;
77 -> 89 ;
90 [label="gini = 0.0\nsamples = 310\nvalue = [310, 0]"] ;
76 -> 90 ;
91 [label="CASE_PROCESSING_DURATION <= 6.5\ngini = 0.024\nsamples = 80623\nvalue = [994, 79629]"] ;
75 -> 91 ;
92 [label="PAID_WAGE_PER_YEAR <= 33838.801\ngini = 0.018\nsamples = 65106\nvalue = [602, 64504]"] ;
91 -> 92 ;
93 [label="PAID_WAGE_PER_YEAR <= 33834.0\ngini = 0.096\nsamples = 792\nvalue = [40, 752]"] ;
92 -> 93 ;
94 [label="PAID_WAGE_PER_YEAR <= 23960.0\ngini = 0.094\nsamples = 791\nvalue = [39, 752]"] ;
93 -> 94 ;
95 [label="PREVAILING_WAGE_PER_YEAR <= 23808.0\ngini = 0.219\nsamples = 88\nvalue = [11, 77]"] ;
94 -> 95 ;
96 [label="MONTH_October <= 0.5\ngini = 0.187\nsamples = 86\nvalue = [9, 77]"] ;
95 -> 96 ;
97 [label="gini = 0.108\nsamples = 70\nvalue = [4, 66]"] ;
96 -> 97 ;
98 [label="gini = 0.43\nsamples = 16\nvalue = [5, 11]"] ;
96 -> 98 ;
99 [label="gini = 0.0\nsamples = 2\nvalue = [2, 0]"] ;
95 -> 99 ;
100 [label="WORK_STATE_TEXAS <= 0.5\ngini = 0.076\nsamples = 703\nvalue = [28, 675]"] ;
94 -> 100 ;
101 [label="VISA_CLASS_H-1B1 Chile <= 0.5\ngini = 0.068\nsamples = 676\nvalue = [24, 652]"] ;
100 -> 101 ;
102 [label="gini = 0.064\nsamples = 665\nvalue = [22, 643]"] ;
101 -> 102 ;
103 [label="gini = 0.298\nsamples = 11\nvalue = [2, 9]"] ;
101 -> 103 ;
104 [label="PAID_WAGE_PER_YEAR <= 31350.0\ngini = 0.252\nsamples = 27\nvalue = [4, 23]"] ;
100 -> 104 ;
105 [label="gini = 0.091\nsamples = 21\nvalue = [1, 20]"] ;
104 -> 105 ;
106 [label="gini = 0.5\nsamples = 6\nvalue = [3, 3]"] ;
104 -> 106 ;
107 [label="gini = 0.0\nsamples = 1\nvalue = [1, 0]"] ;
93 -> 107 ;
108 [label="PAID_WAGE_PER_YEAR <= 877500.0\ngini = 0.017\nsamples = 64314\nvalue = [562, 63752]"] ;
92 -> 108 ;
109 [label="PREVAILING_WAGE_PER_YEAR <= 43465.0\ngini = 0.017\nsamples = 64310\nvalue = [560, 63750]"] ;
108 -> 109 ;
110 [label="WORK_STATE_NEVADA <= 0.5\ngini = 0.033\nsamples = 5322\nvalue = [88, 5234]"] ;
109 -> 110 ;
111 [label="PREVAILING_WAGE_PER_YEAR <= 43445.0\ngini = 0.032\nsamples = 5315\nvalue = [86, 5229]"] ;
110 -> 111 ;
112 [label="gini = 0.031\nsamples = 5305\nvalue = [84, 5221]"] ;
111 -> 112 ;
113 [label="gini = 0.32\nsamples = 10\nvalue = [2, 8]"] ;
111 -> 113 ;
114 [label="CASE_RECEIVED_MONTH_July <= 0.5\ngini = 0.408\nsamples = 7\nvalue = [2, 5]"] ;
110 -> 114 ;
115 [label="gini = 0.278\nsamples = 6\nvalue = [1, 5]"] ;
114 -> 115 ;
116 [label="gini = 0.0\nsamples = 1\nvalue = [1, 0]"] ;
114 -> 116 ;
117 [label="PAID_WAGE_PER_YEAR <= 407200.0\ngini = 0.016\nsamples = 58988\nvalue = [472, 58516]"] ;
109 -> 117 ;
118 [label="MONTH_November <= 0.5\ngini = 0.016\nsamples = 58975\nvalue = [470, 58505]"] ;
117 -> 118 ;
119 [label="gini = 0.015\nsamples = 55801\nvalue = [418, 55383]"] ;
118 -> 119 ;
120 [label="gini = 0.032\nsamples = 3174\nvalue = [52, 3122]"] ;
118 -> 120 ;
121 [label="JOB_TITLE_SUBGROUP_business analyst <= 0.5\ngini = 0.26\nsamples = 13\nvalue = [2, 11]"] ;
117 -> 121 ;
122 [label="gini = 0.153\nsamples = 12\nvalue = [1, 11]"] ;
121 -> 122 ;
123 [label="gini = 0.0\nsamples = 1\nvalue = [1, 0]"] ;
121 -> 123 ;
124 [label="PREVAILING_WAGE_PER_YEAR <= 86850.0\ngini = 0.5\nsamples = 4\nvalue = [2, 2]"] ;
108 -> 124 ;
125 [label="gini = 0.0\nsamples = 1\nvalue = [0, 1]"] ;
124 -> 125 ;
126 [label="ANNUAL_PAID_PREVAILING_WAGE_RATIO <= 11.395\ngini = 0.444\nsamples = 3\nvalue = [2, 1]"] ;
124 -> 126 ;
127 [label="gini = 0.0\nsamples = 1\nvalue = [1, 0]"] ;
126 -> 127 ;
128 [label="CASE_RECEIVED_WEEKDAY_Thursday <= 0.5\ngini = 0.5\nsamples = 2\nvalue = [1, 1]"] ;
126 -> 128 ;
129 [label="gini = 0.0\nsamples = 1\nvalue = [1, 0]"] ;
128 -> 129 ;
130 [label="gini = 0.0\nsamples = 1\nvalue = [0, 1]"] ;
128 -> 130 ;
131 [label="PAID_WAGE_PER_YEAR <= 30008.73\ngini = 0.049\nsamples = 15517\nvalue = [392, 15125]"] ;
91 -> 131 ;
132 [label="CASE_RECEIVED_MONTH_March <= 0.5\ngini = 0.325\nsamples = 93\nvalue = [19, 74]"] ;
131 -> 132 ;
133 [label="WORK_STATE_FLORIDA <= 0.5\ngini = 0.283\nsamples = 88\nvalue = [15, 73]"] ;
132 -> 133 ;
134 [label="VISA_CLASS_E-3 Australian <= 0.5\ngini = 0.232\nsamples = 82\nvalue = [11, 71]"] ;
133 -> 134 ;
135 [label="PREVAILING_WAGE_PER_YEAR <= 29559.6\ngini = 0.202\nsamples = 79\nvalue = [9, 70]"] ;
134 -> 135 ;
136 [label="gini = 0.167\nsamples = 76\nvalue = [7, 69]"] ;
135 -> 136 ;
137 [label="gini = 0.444\nsamples = 3\nvalue = [2, 1]"] ;
135 -> 137 ;
138 [label="WORK_STATE_NEW YORK <= 0.5\ngini = 0.444\nsamples = 3\nvalue = [2, 1]"] ;
134 -> 138 ;
139 [label="gini = 0.0\nsamples = 1\nvalue = [0, 1]"] ;
138 -> 139 ;
140 [label="gini = 0.0\nsamples = 2\nvalue = [2, 0]"] ;
138 -> 140 ;
141 [label="PAID_WAGE_PER_YEAR <= 22400.0\ngini = 0.444\nsamples = 6\nvalue = [4, 2]"] ;
133 -> 141 ;
142 [label="gini = 0.0\nsamples = 2\nvalue = [0, 2]"] ;
141 -> 142 ;
143 [label="gini = 0.0\nsamples = 4\nvalue = [4, 0]"] ;
141 -> 143 ;
144 [label="PREVAILING_WAGE_PER_YEAR <= 29507.0\ngini = 0.32\nsamples = 5\nvalue = [4, 1]"] ;
132 -> 144 ;
145 [label="gini = 0.0\nsamples = 4\nvalue = [4, 0]"] ;
144 -> 145 ;
146 [label="gini = 0.0\nsamples = 1\nvalue = [0, 1]"] ;
144 -> 146 ;
147 [label="PAID_WAGE_PER_YEAR <= 48045.76\ngini = 0.047\nsamples = 15424\nvalue = [373, 15051]"] ;
131 -> 147 ;
148 [label="VISA_CLASS_E-3 Australian <= 0.5\ngini = 0.108\nsamples = 1047\nvalue = [60, 987]"] ;
147 -> 148 ;
149 [label="PAID_WAGE_SUBMITTED_UNIT <= 4.5\ngini = 0.1\nsamples = 1037\nvalue = [55, 982]"] ;
148 -> 149 ;
150 [label="PREVAILING_WAGE_PER_YEAR <= 48025.0\ngini = 0.081\nsamples = 946\nvalue = [40, 906]"] ;
149 -> 150 ;
151 [label="gini = 0.079\nsamples = 945\nvalue = [39, 906]"] ;
150 -> 151 ;
152 [label="gini = 0.0\nsamples = 1\nvalue = [1, 0]"] ;
150 -> 152 ;
153 [label="CASE_RECEIVED_MONTH_March <= 0.5\ngini = 0.275\nsamples = 91\nvalue = [15, 76]"] ;
149 -> 153 ;
154 [label="gini = 0.242\nsamples = 85\nvalue = [12, 73]"] ;
153 -> 154 ;
155 [label="gini = 0.5\nsamples = 6\nvalue = [3, 3]"] ;
153 -> 155 ;
156 [label="PAID_WAGE_PER_YEAR <= 41405.0\ngini = 0.5\nsamples = 10\nvalue = [5, 5]"] ;
148 -> 156 ;
157 [label="MONTH_September <= 0.5\ngini = 0.32\nsamples = 5\nvalue = [1, 4]"] ;
156 -> 157 ;
158 [label="gini = 0.0\nsamples = 4\nvalue = [0, 4]"] ;
157 -> 158 ;
159 [label="gini = 0.0\nsamples = 1\nvalue = [1, 0]"] ;
157 -> 159 ;
160 [label="ANNUAL_PAID_PREVAILING_WAGE_RATIO <= 1.022\ngini = 0.32\nsamples = 5\nvalue = [4, 1]"] ;
156 -> 160 ;
161 [label="gini = 0.0\nsamples = 4\nvalue = [4, 0]"] ;
160 -> 161 ;
162 [label="gini = 0.0\nsamples = 1\nvalue = [0, 1]"] ;
160 -> 162 ;
163 [label="PAID_WAGE_PER_YEAR <= 810000.0\ngini = 0.043\nsamples = 14377\nvalue = [313, 14064]"] ;
147 -> 163 ;
164 [label="CASE_RECEIVED_MONTH_March <= 0.5\ngini = 0.042\nsamples = 14376\nvalue = [312, 14064]"] ;
163 -> 164 ;
165 [label="WORK_STATE_NORTH DAKOTA <= 0.5\ngini = 0.038\nsamples = 13263\nvalue = [259, 13004]"] ;
164 -> 165 ;
166 [label="gini = 0.038\nsamples = 13250\nvalue = [256, 12994]"] ;
165 -> 166 ;
167 [label="gini = 0.355\nsamples = 13\nvalue = [3, 10]"] ;
165 -> 167 ;
168 [label="CASE_RECEIVED_WEEKDAY_Wednesday <= 0.5\ngini = 0.091\nsamples = 1113\nvalue = [53, 1060]"] ;
164 -> 168 ;
169 [label="gini = 0.231\nsamples = 323\nvalue = [43, 280]"] ;
168 -> 169 ;
170 [label="gini = 0.025\nsamples = 790\nvalue = [10, 780]"] ;
168 -> 170 ;
171 [label="gini = 0.0\nsamples = 1\nvalue = [1, 0]"] ;
163 -> 171 ;
172 [label="gini = 0.0\nsamples = 19\nvalue = [19, 0]"] ;
74 -> 172 ;
173 [label="CASE_PROCESSING_DURATION <= 81.5\ngini = 0.089\nsamples = 19655\nvalue = [922, 18733]"] ;
73 -> 173 ;
174 [label="VISA_CLASS_greencard <= 0.5\ngini = 0.131\nsamples = 10614\nvalue = [750, 9864]"] ;
173 -> 174 ;
175 [label="CASE_RECEIVED_MONTH_March <= 0.5\ngini = 0.115\nsamples = 10506\nvalue = [642, 9864]"] ;
174 -> 175 ;
176 [label="PAID_WAGE_PER_YEAR <= 46537.5\ngini = 0.073\nsamples = 7344\nvalue = [277, 7067]"] ;
175 -> 176 ;
177 [label="VISA_CLASS_E-3 Australian <= 0.5\ngini = 0.194\nsamples = 349\nvalue = [38, 311]"] ;
176 -> 177 ;
178 [label="PAID_WAGE_PER_YEAR <= 46452.5\ngini = 0.18\nsamples = 341\nvalue = [34, 307]"] ;
177 -> 178 ;
179 [label="CASE_RECEIVED_MONTH_February <= 0.5\ngini = 0.175\nsamples = 340\nvalue = [33, 307]"] ;
178 -> 179 ;
180 [label="WORK_STATE_NORTH CAROLINA <= 0.5\ngini = 0.135\nsamples = 274\nvalue = [20, 254]"] ;
179 -> 180 ;
181 [label="gini = 0.12\nsamples = 264\nvalue = [17, 247]"] ;
180 -> 181 ;
182 [label="gini = 0.42\nsamples = 10\nvalue = [3, 7]"] ;
180 -> 182 ;
183 [label="PAID_WAGE_PER_YEAR <= 28441.0\ngini = 0.316\nsamples = 66\nvalue = [13, 53]"] ;
179 -> 183 ;
184 [label="gini = 0.444\nsamples = 6\nvalue = [4, 2]"] ;
183 -> 184 ;
185 [label="gini = 0.255\nsamples = 60\nvalue = [9, 51]"] ;
183 -> 185 ;
186 [label="gini = 0.0\nsamples = 1\nvalue = [1, 0]"] ;
178 -> 186 ;
187 [label="PREVAILING_WAGE_PER_YEAR <= 31349.0\ngini = 0.5\nsamples = 8\nvalue = [4, 4]"] ;
177 -> 187 ;
188 [label="MONTH_December <= 0.5\ngini = 0.444\nsamples = 6\nvalue = [4, 2]"] ;
187 -> 188 ;
189 [label="WORK_STATE_NEW YORK <= 0.5\ngini = 0.32\nsamples = 5\nvalue = [4, 1]"] ;
188 -> 189 ;
190 [label="gini = 0.0\nsamples = 4\nvalue = [4, 0]"] ;
189 -> 190 ;
191 [label="gini = 0.0\nsamples = 1\nvalue = [0, 1]"] ;
189 -> 191 ;
192 [label="gini = 0.0\nsamples = 1\nvalue = [0, 1]"] ;
188 -> 192 ;
193 [label="gini = 0.0\nsamples = 2\nvalue = [0, 2]"] ;
187 -> 193 ;
194 [label="DAY_Saturday <= 0.5\ngini = 0.066\nsamples = 6995\nvalue = [239, 6756]"] ;
176 -> 194 ;
195 [label="CASE_PROCESSING_DURATION <= 17.5\ngini = 0.062\nsamples = 6847\nvalue = [221, 6626]"] ;
194 -> 195 ;
196 [label="VISA_CLASS_H-1B1 Singapore <= 0.5\ngini = 0.073\nsamples = 5106\nvalue = [195, 4911]"] ;
195 -> 196 ;
197 [label="JOB_TITLE_SUBGROUP_assistant professor <= 0.5\ngini = 0.073\nsamples = 5102\nvalue = [193, 4909]"] ;
196 -> 197 ;
198 [label="gini = 0.064\nsamples = 4505\nvalue = [150, 4355]"] ;
197 -> 198 ;
199 [label="gini = 0.134\nsamples = 597\nvalue = [43, 554]"] ;
197 -> 199 ;
200 [label="CASE_RECEIVED_MONTH_November <= 0.5\ngini = 0.5\nsamples = 4\nvalue = [2, 2]"] ;
196 -> 200 ;
201 [label="gini = 0.444\nsamples = 3\nvalue = [1, 2]"] ;
200 -> 201 ;
202 [label="gini = 0.0\nsamples = 1\nvalue = [1, 0]"] ;
200 -> 202 ;
203 [label="PAID_WAGE_PER_YEAR <= 901286.5\ngini = 0.029\nsamples = 1741\nvalue = [26, 1715]"] ;
195 -> 203 ;
204 [label="WORK_STATE_DELAWARE <= 0.5\ngini = 0.028\nsamples = 1740\nvalue = [25, 1715]"] ;
203 -> 204 ;
205 [label="gini = 0.027\nsamples = 1735\nvalue = [24, 1711]"] ;
204 -> 205 ;
206 [label="gini = 0.32\nsamples = 5\nvalue = [1, 4]"] ;
204 -> 206 ;
207 [label="gini = 0.0\nsamples = 1\nvalue = [1, 0]"] ;
203 -> 207 ;
208 [label="MONTH_September <= 0.5\ngini = 0.214\nsamples = 148\nvalue = [18, 130]"] ;
194 -> 208 ;
209 [label="PREVAILING_WAGE_PER_YEAR <= 92883.5\ngini = 0.187\nsamples = 144\nvalue = [15, 129]"] ;
208 -> 209 ;
210 [label="PREVAILING_WAGE_PER_YEAR <= 92293.0\ngini = 0.291\nsamples = 85\nvalue = [15, 70]"] ;
209 -> 210 ;
211 [label="gini = 0.219\nsamples = 80\nvalue = [10, 70]"] ;
210 -> 211 ;
212 [label="gini = 0.0\nsamples = 5\nvalue = [5, 0]"] ;
210 -> 212 ;
213 [label="gini = 0.0\nsamples = 59\nvalue = [0, 59]"] ;
209 -> 213 ;
214 [label="WORK_STATE_ARIZONA <= 0.5\ngini = 0.375\nsamples = 4\nvalue = [3, 1]"] ;
208 -> 214 ;
215 [label="gini = 0.0\nsamples = 3\nvalue = [3, 0]"] ;
214 -> 215 ;
216 [label="gini = 0.0\nsamples = 1\nvalue = [0, 1]"] ;
214 -> 216 ;
217 [label="CASE_PROCESSING_DURATION <= 11.5\ngini = 0.204\nsamples = 3162\nvalue = [365, 2797]"] ;
175 -> 217 ;
218 [label="PAID_WAGE_PER_YEAR <= 40736.0\ngini = 0.234\nsamples = 2690\nvalue = [364, 2326]"] ;
217 -> 218 ;
219 [label="WORK_STATE_UTAH <= 0.5\ngini = 0.488\nsamples = 95\nvalue = [40, 55]"] ;
218 -> 219 ;
220 [label="PAID_WAGE_PER_YEAR <= 39700.0\ngini = 0.461\nsamples = 86\nvalue = [31, 55]"] ;
219 -> 220 ;
221 [label="WORK_STATE_FLORIDA <= 0.5\ngini = 0.419\nsamples = 77\nvalue = [23, 54]"] ;
220 -> 221 ;
222 [label="gini = 0.454\nsamples = 66\nvalue = [23, 43]"] ;
221 -> 222 ;
223 [label="gini = 0.0\nsamples = 11\nvalue = [0, 11]"] ;
221 -> 223 ;
224 [label="CASE_RECEIVED_WEEKDAY_Thursday <= 0.5\ngini = 0.198\nsamples = 9\nvalue = [8, 1]"] ;
220 -> 224 ;
225 [label="gini = 0.0\nsamples = 8\nvalue = [8, 0]"] ;
224 -> 225 ;
226 [label="gini = 0.0\nsamples = 1\nvalue = [0, 1]"] ;
224 -> 226 ;
227 [label="gini = 0.0\nsamples = 9\nvalue = [9, 0]"] ;
219 -> 227 ;
228 [label="PREVAILING_WAGE_PER_YEAR <= 95015.5\ngini = 0.219\nsamples = 2595\nvalue = [324, 2271]"] ;
218 -> 228 ;
229 [label="PREVAILING_WAGE_PER_YEAR <= 90159.0\ngini = 0.251\nsamples = 2081\nvalue = [306, 1775]"] ;
228 -> 229 ;
230 [label="PREVAILING_WAGE_PER_YEAR <= 58094.5\ngini = 0.23\nsamples = 1862\nvalue = [247, 1615]"] ;
229 -> 230 ;
231 [label="gini = 0.309\nsamples = 601\nvalue = [115, 486]"] ;
230 -> 231 ;
232 [label="gini = 0.187\nsamples = 1261\nvalue = [132, 1129]"] ;
230 -> 232 ;
233 [label="CASE_PROCESSING_DURATION <= 8.5\ngini = 0.394\nsamples = 219\nvalue = [59, 160]"] ;
229 -> 233 ;
234 [label="gini = 0.487\nsamples = 43\nvalue = [25, 18]"] ;
233 -> 234 ;
235 [label="gini = 0.312\nsamples = 176\nvalue = [34, 142]"] ;
233 -> 235 ;
236 [label="WORK_STATE_NEW JERSEY <= 0.5\ngini = 0.068\nsamples = 514\nvalue = [18, 496]"] ;
228 -> 236 ;
237 [label="WORK_STATE_ARKANSAS <= 0.5\ngini = 0.057\nsamples = 508\nvalue = [15, 493]"] ;
236 -> 237 ;
238 [label="gini = 0.054\nsamples = 507\nvalue = [14, 493]"] ;
237 -> 238 ;
239 [label="gini = 0.0\nsamples = 1\nvalue = [1, 0]"] ;
237 -> 239 ;
240 [label="CASE_RECEIVED_WEEKDAY_Sunday <= 0.5\ngini = 0.5\nsamples = 6\nvalue = [3, 3]"] ;
236 -> 240 ;
241 [label="gini = 0.375\nsamples = 4\nvalue = [1, 3]"] ;
240 -> 241 ;
242 [label="gini = 0.0\nsamples = 2\nvalue = [2, 0]"] ;
240 -> 242 ;
243 [label="WORK_STATE_MASSACHUSETTS <= 0.5\ngini = 0.004\nsamples = 472\nvalue = [1, 471]"] ;
217 -> 243 ;
244 [label="gini = 0.0\nsamples = 455\nvalue = [0, 455]"] ;
243 -> 244 ;
245 [label="PREVAILING_WAGE_PER_YEAR <= 99664.0\ngini = 0.111\nsamples = 17\nvalue = [1, 16]"] ;
243 -> 245 ;
246 [label="gini = 0.0\nsamples = 16\nvalue = [0, 16]"] ;
245 -> 246 ;
247 [label="gini = 0.0\nsamples = 1\nvalue = [1, 0]"] ;
245 -> 247 ;
248 [label="gini = 0.0\nsamples = 108\nvalue = [108, 0]"] ;
174 -> 248 ;
249 [label="CASE_PROCESSING_DURATION <= 189.5\ngini = 0.037\nsamples = 9041\nvalue = [172, 8869]"] ;
173 -> 249 ;
250 [label="WORK_STATE_MONTANA <= 0.5\ngini = 0.031\nsamples = 8523\nvalue = [135, 8388]"] ;
249 -> 250 ;
251 [label="CASE_PROCESSING_DURATION <= 133.5\ngini = 0.031\nsamples = 8519\nvalue = [133, 8386]"] ;
250 -> 251 ;
252 [label="VISA_CLASS_greencard <= 0.5\ngini = 0.071\nsamples = 1498\nvalue = [55, 1443]"] ;
251 -> 252 ;
253 [label="PAID_WAGE_PER_YEAR <= 32240.0\ngini = 0.027\nsamples = 1387\nvalue = [19, 1368]"] ;
252 -> 253 ;
254 [label="gini = 0.0\nsamples = 1\nvalue = [1, 0]"] ;
253 -> 254 ;
255 [label="PREVAILING_WAGE_PER_YEAR <= 125496.5\ngini = 0.026\nsamples = 1386\nvalue = [18, 1368]"] ;
253 -> 255 ;
256 [label="WORK_STATE_ALABAMA <= 0.5\ngini = 0.021\nsamples = 1346\nvalue = [14, 1332]"] ;
255 -> 256 ;
257 [label="gini = 0.019\nsamples = 1343\nvalue = [13, 1330]"] ;
256 -> 257 ;
258 [label="gini = 0.444\nsamples = 3\nvalue = [1, 2]"] ;
256 -> 258 ;
259 [label="PAID_WAGE_PER_YEAR <= 127150.199\ngini = 0.18\nsamples = 40\nvalue = [4, 36]"] ;
255 -> 259 ;
260 [label="gini = 0.444\nsamples = 3\nvalue = [2, 1]"] ;
259 -> 260 ;
261 [label="gini = 0.102\nsamples = 37\nvalue = [2, 35]"] ;
259 -> 261 ;
262 [label="CASE_PROCESSING_DURATION <= 125.0\ngini = 0.438\nsamples = 111\nvalue = [36, 75]"] ;
252 -> 262 ;
263 [label="CASE_PROCESSING_DURATION <= 121.0\ngini = 0.059\nsamples = 33\nvalue = [32, 1]"] ;
262 -> 263 ;
264 [label="gini = 0.0\nsamples = 30\nvalue = [30, 0]"] ;
263 -> 264 ;
265 [label="CASE_PROCESSING_DURATION <= 122.5\ngini = 0.444\nsamples = 3\nvalue = [2, 1]"] ;
263 -> 265 ;
266 [label="gini = 0.0\nsamples = 1\nvalue = [0, 1]"] ;
265 -> 266 ;
267 [label="gini = 0.0\nsamples = 2\nvalue = [2, 0]"] ;
265 -> 267 ;
268 [label="WORK_STATE_MASSACHUSETTS <= 0.5\ngini = 0.097\nsamples = 78\nvalue = [4, 74]"] ;
262 -> 268 ;
269 [label="MONTH_February <= 0.5\ngini = 0.075\nsamples = 77\nvalue = [3, 74]"] ;
268 -> 269 ;
270 [label="gini = 0.051\nsamples = 76\nvalue = [2, 74]"] ;
269 -> 270 ;
271 [label="gini = 0.0\nsamples = 1\nvalue = [1, 0]"] ;
269 -> 271 ;
272 [label="gini = 0.0\nsamples = 1\nvalue = [1, 0]"] ;
268 -> 272 ;
273 [label="CASE_PROCESSING_DURATION <= 162.5\ngini = 0.022\nsamples = 7021\nvalue = [78, 6943]"] ;
251 -> 273 ;
274 [label="WORK_STATE_MISSISSIPPI <= 0.5\ngini = 0.012\nsamples = 5010\nvalue = [30, 4980]"] ;
273 -> 274 ;
275 [label="VISA_CLASS_greencard <= 0.5\ngini = 0.012\nsamples = 5002\nvalue = [29, 4973]"] ;
274 -> 275 ;
276 [label="WORK_STATE_TEXAS <= 0.5\ngini = 0.038\nsamples = 412\nvalue = [8, 404]"] ;
275 -> 276 ;
277 [label="gini = 0.026\nsamples = 383\nvalue = [5, 378]"] ;
276 -> 277 ;
278 [label="gini = 0.185\nsamples = 29\nvalue = [3, 26]"] ;
276 -> 278 ;
279 [label="CASE_RECEIVED_MONTH_December <= 0.5\ngini = 0.009\nsamples = 4590\nvalue = [21, 4569]"] ;
275 -> 279 ;
280 [label="gini = 0.009\nsamples = 4589\nvalue = [20, 4569]"] ;
279 -> 280 ;
281 [label="gini = 0.0\nsamples = 1\nvalue = [1, 0]"] ;
279 -> 281 ;
282 [label="PREVAILING_WAGE_PER_YEAR <= 34075.0\ngini = 0.219\nsamples = 8\nvalue = [1, 7]"] ;
274 -> 282 ;
283 [label="gini = 0.0\nsamples = 1\nvalue = [1, 0]"] ;
282 -> 283 ;
284 [label="gini = 0.0\nsamples = 7\nvalue = [0, 7]"] ;
282 -> 284 ;
285 [label="PREVAILING_WAGE_PER_YEAR <= 48143.5\ngini = 0.047\nsamples = 2011\nvalue = [48, 1963]"] ;
273 -> 285 ;
286 [label="CASE_RECEIVED_WEEKDAY_Saturday <= 0.5\ngini = 0.157\nsamples = 140\nvalue = [12, 128]"] ;
285 -> 286 ;
287 [label="PREVAILING_WAGE_PER_YEAR <= 48073.5\ngini = 0.135\nsamples = 137\nvalue = [10, 127]"] ;
286 -> 287 ;
288 [label="gini = 0.124\nsamples = 136\nvalue = [9, 127]"] ;
287 -> 288 ;
289 [label="gini = 0.0\nsamples = 1\nvalue = [1, 0]"] ;
287 -> 289 ;
290 [label="PAID_WAGE_PER_YEAR <= 28000.0\ngini = 0.444\nsamples = 3\nvalue = [2, 1]"] ;
286 -> 290 ;
291 [label="gini = 0.0\nsamples = 1\nvalue = [0, 1]"] ;
290 -> 291 ;
292 [label="gini = 0.0\nsamples = 2\nvalue = [2, 0]"] ;
290 -> 292 ;
293 [label="MONTH_June <= 0.5\ngini = 0.038\nsamples = 1871\nvalue = [36, 1835]"] ;
285 -> 293 ;
294 [label="PREVAILING_WAGE_PER_YEAR <= 131938.5\ngini = 0.033\nsamples = 1781\nvalue = [30, 1751]"] ;
293 -> 294 ;
295 [label="gini = 0.029\nsamples = 1705\nvalue = [25, 1680]"] ;
294 -> 295 ;
296 [label="gini = 0.123\nsamples = 76\nvalue = [5, 71]"] ;
294 -> 296 ;
297 [label="ANNUAL_PAID_PREVAILING_WAGE_RATIO <= 1.001\ngini = 0.124\nsamples = 90\nvalue = [6, 84]"] ;
293 -> 297 ;
298 [label="gini = 0.24\nsamples = 43\nvalue = [6, 37]"] ;
297 -> 298 ;
299 [label="gini = 0.0\nsamples = 47\nvalue = [0, 47]"] ;
297 -> 299 ;
300 [label="CASE_PROCESSING_DURATION <= 137.5\ngini = 0.5\nsamples = 4\nvalue = [2, 2]"] ;
250 -> 300 ;
301 [label="gini = 0.0\nsamples = 2\nvalue = [2, 0]"] ;
300 -> 301 ;
302 [label="gini = 0.0\nsamples = 2\nvalue = [0, 2]"] ;
300 -> 302 ;
303 [label="WORK_STATE_NORTH DAKOTA <= 0.5\ngini = 0.133\nsamples = 518\nvalue = [37, 481]"] ;
249 -> 303 ;
304 [label="WORK_STATE_CONNECTICUT <= 0.5\ngini = 0.13\nsamples = 517\nvalue = [36, 481]"] ;
303 -> 304 ;
305 [label="MONTH_December <= 0.5\ngini = 0.126\nsamples = 516\nvalue = [35, 481]"] ;
304 -> 305 ;
306 [label="PAID_WAGE_PER_YEAR <= 83215.5\ngini = 0.17\nsamples = 330\nvalue = [31, 299]"] ;
305 -> 306 ;
307 [label="JOB_TITLE_SUBGROUP_teacher <= 0.5\ngini = 0.073\nsamples = 159\nvalue = [6, 153]"] ;
306 -> 307 ;
308 [label="WORK_STATE_MARYLAND <= 0.5\ngini = 0.029\nsamples = 135\nvalue = [2, 133]"] ;
307 -> 308 ;
309 [label="gini = 0.015\nsamples = 131\nvalue = [1, 130]"] ;
308 -> 309 ;
310 [label="gini = 0.375\nsamples = 4\nvalue = [1, 3]"] ;
308 -> 310 ;
311 [label="WORK_STATE_VIRGINIA <= 0.5\ngini = 0.278\nsamples = 24\nvalue = [4, 20]"] ;
307 -> 311 ;
312 [label="gini = 0.165\nsamples = 22\nvalue = [2, 20]"] ;
311 -> 312 ;
313 [label="gini = 0.0\nsamples = 2\nvalue = [2, 0]"] ;
311 -> 313 ;
314 [label="ANNUAL_PAID_PREVAILING_WAGE_RATIO <= 1.002\ngini = 0.25\nsamples = 171\nvalue = [25, 146]"] ;
306 -> 314 ;
315 [label="CASE_RECEIVED_MONTH_September <= 0.5\ngini = 0.361\nsamples = 72\nvalue = [17, 55]"] ;
314 -> 315 ;
316 [label="gini = 0.324\nsamples = 64\nvalue = [13, 51]"] ;
315 -> 316 ;
317 [label="gini = 0.5\nsamples = 8\nvalue = [4, 4]"] ;
315 -> 317 ;
318 [label="PAID_WAGE_PER_YEAR <= 83960.0\ngini = 0.149\nsamples = 99\nvalue = [8, 91]"] ;
314 -> 318 ;
319 [label="gini = 0.0\nsamples = 1\nvalue = [1, 0]"] ;
318 -> 319 ;
320 [label="gini = 0.133\nsamples = 98\nvalue = [7, 91]"] ;
318 -> 320 ;
321 [label="WORK_STATE_MARYLAND <= 0.5\ngini = 0.042\nsamples = 186\nvalue = [4, 182]"] ;
305 -> 321 ;
322 [label="PREVAILING_WAGE_PER_YEAR <= 107851.0\ngini = 0.032\nsamples = 182\nvalue = [3, 179]"] ;
321 -> 322 ;
323 [label="gini = 0.0\nsamples = 130\nvalue = [0, 130]"] ;
322 -> 323 ;
324 [label="PAID_WAGE_PER_YEAR <= 108402.5\ngini = 0.109\nsamples = 52\nvalue = [3, 49]"] ;
322 -> 324 ;
325 [label="gini = 0.0\nsamples = 1\nvalue = [1, 0]"] ;
324 -> 325 ;
326 [label="gini = 0.075\nsamples = 51\nvalue = [2, 49]"] ;
324 -> 326 ;
327 [label="ANNUAL_PAID_PREVAILING_WAGE_RATIO <= 1.017\ngini = 0.375\nsamples = 4\nvalue = [1, 3]"] ;
321 -> 327 ;
328 [label="gini = 0.0\nsamples = 3\nvalue = [0, 3]"] ;
327 -> 328 ;
329 [label="gini = 0.0\nsamples = 1\nvalue = [1, 0]"] ;
327 -> 329 ;
330 [label="gini = 0.0\nsamples = 1\nvalue = [1, 0]"] ;
304 -> 330 ;
331 [label="gini = 0.0\nsamples = 1\nvalue = [1, 0]"] ;
303 -> 331 ;
332 [label="JOB_TITLE_SUBGROUP_teacher <= 0.5\ngini = 0.253\nsamples = 8892\nvalue = [1320, 7572]"] ;
70 -> 332 ;
333 [label="PREVAILING_WAGE_PER_YEAR <= 73621.5\ngini = 0.216\nsamples = 8081\nvalue = [995, 7086]"] ;
332 -> 333 ;
334 [label="VISA_CLASS_greencard <= 0.5\ngini = 0.131\nsamples = 3722\nvalue = [263, 3459]"] ;
333 -> 334 ;
335 [label="CASE_PROCESSING_DURATION <= 744.5\ngini = 0.116\nsamples = 3484\nvalue = [216, 3268]"] ;
334 -> 335 ;
336 [label="WORK_STATE_OREGON <= 0.5\ngini = 0.082\nsamples = 2304\nvalue = [99, 2205]"] ;
335 -> 336 ;
337 [label="VISA_CLASS_E-3 Australian <= 0.5\ngini = 0.079\nsamples = 2283\nvalue = [94, 2189]"] ;
336 -> 337 ;
338 [label="WORK_STATE_OKLAHOMA <= 0.5\ngini = 0.077\nsamples = 2271\nvalue = [91, 2180]"] ;
337 -> 338 ;
339 [label="WORK_STATE_UTAH <= 0.5\ngini = 0.074\nsamples = 2250\nvalue = [87, 2163]"] ;
338 -> 339 ;
340 [label="WORK_STATE_ARKANSAS <= 0.5\ngini = 0.072\nsamples = 2236\nvalue = [84, 2152]"] ;
339 -> 340 ;
341 [label="CASE_RECEIVED_MONTH_February <= 0.5\ngini = 0.071\nsamples = 2226\nvalue = [82, 2144]"] ;
340 -> 341 ;
342 [label="gini = 0.065\nsamples = 2053\nvalue = [69, 1984]"] ;
341 -> 342 ;
343 [label="gini = 0.139\nsamples = 173\nvalue = [13, 160]"] ;
341 -> 343 ;
344 [label="CASE_RECEIVED_MONTH_March <= 0.5\ngini = 0.32\nsamples = 10\nvalue = [2, 8]"] ;
340 -> 344 ;
345 [label="gini = 0.0\nsamples = 8\nvalue = [0, 8]"] ;
344 -> 345 ;
346 [label="gini = 0.0\nsamples = 2\nvalue = [2, 0]"] ;
344 -> 346 ;
347 [label="ANNUAL_PAID_PREVAILING_WAGE_RATIO <= 1.175\ngini = 0.337\nsamples = 14\nvalue = [3, 11]"] ;
339 -> 347 ;
348 [label="CASE_PROCESSING_DURATION <= 593.5\ngini = 0.49\nsamples = 7\nvalue = [3, 4]"] ;
347 -> 348 ;
349 [label="gini = 0.375\nsamples = 4\nvalue = [3, 1]"] ;
348 -> 349 ;
350 [label="gini = 0.0\nsamples = 3\nvalue = [0, 3]"] ;
348 -> 350 ;
351 [label="gini = 0.0\nsamples = 7\nvalue = [0, 7]"] ;
347 -> 351 ;
352 [label="ANNUAL_PAID_PREVAILING_WAGE_RATIO <= 1.0\ngini = 0.308\nsamples = 21\nvalue = [4, 17]"] ;
338 -> 352 ;
353 [label="gini = 0.0\nsamples = 16\nvalue = [0, 16]"] ;
352 -> 353 ;
354 [label="MONTH_September <= 0.5\ngini = 0.32\nsamples = 5\nvalue = [4, 1]"] ;
352 -> 354 ;
355 [label="gini = 0.0\nsamples = 4\nvalue = [4, 0]"] ;
354 -> 355 ;
356 [label="gini = 0.0\nsamples = 1\nvalue = [0, 1]"] ;
354 -> 356 ;
357 [label="JOB_TITLE_SUBGROUP_data analyst <= 0.5\ngini = 0.375\nsamples = 12\nvalue = [3, 9]"] ;
337 -> 357 ;
358 [label="PAID_WAGE_PER_YEAR <= 65836.5\ngini = 0.18\nsamples = 10\nvalue = [1, 9]"] ;
357 -> 358 ;
359 [label="gini = 0.0\nsamples = 1\nvalue = [1, 0]"] ;
358 -> 359 ;
360 [label="gini = 0.0\nsamples = 9\nvalue = [0, 9]"] ;
358 -> 360 ;
361 [label="gini = 0.0\nsamples = 2\nvalue = [2, 0]"] ;
357 -> 361 ;
362 [label="CASE_PROCESSING_DURATION <= 641.5\ngini = 0.363\nsamples = 21\nvalue = [5, 16]"] ;
336 -> 362 ;
363 [label="PREVAILING_WAGE_PER_YEAR <= 69112.398\ngini = 0.208\nsamples = 17\nvalue = [2, 15]"] ;
362 -> 363 ;
364 [label="DAY_Friday <= 0.5\ngini = 0.117\nsamples = 16\nvalue = [1, 15]"] ;
363 -> 364 ;
365 [label="gini = 0.0\nsamples = 14\nvalue = [0, 14]"] ;
364 -> 365 ;
366 [label="PAID_WAGE_PER_YEAR <= 68400.0\ngini = 0.5\nsamples = 2\nvalue = [1, 1]"] ;
364 -> 366 ;
367 [label="gini = 0.0\nsamples = 1\nvalue = [0, 1]"] ;
366 -> 367 ;
368 [label="gini = 0.0\nsamples = 1\nvalue = [1, 0]"] ;
366 -> 368 ;
369 [label="gini = 0.0\nsamples = 1\nvalue = [1, 0]"] ;
363 -> 369 ;
370 [label="CASE_RECEIVED_MONTH_March <= 0.5\ngini = 0.375\nsamples = 4\nvalue = [3, 1]"] ;
362 -> 370 ;
371 [label="gini = 0.0\nsamples = 3\nvalue = [3, 0]"] ;
370 -> 371 ;
372 [label="gini = 0.0\nsamples = 1\nvalue = [0, 1]"] ;
370 -> 372 ;
373 [label="PREVAILING_WAGE_PER_YEAR <= 67452.0\ngini = 0.179\nsamples = 1180\nvalue = [117, 1063]"] ;
335 -> 373 ;
374 [label="JOB_TITLE_SUBGROUP_business analyst <= 0.5\ngini = 0.14\nsamples = 1013\nvalue = [77, 936]"] ;
373 -> 374 ;
375 [label="WORK_STATE_LOUISIANA <= 0.5\ngini = 0.12\nsamples = 901\nvalue = [58, 843]"] ;
374 -> 375 ;
376 [label="WORK_STATE_NEVADA <= 0.5\ngini = 0.115\nsamples = 895\nvalue = [55, 840]"] ;
375 -> 376 ;
377 [label="CASE_PROCESSING_DURATION <= 745.5\ngini = 0.112\nsamples = 892\nvalue = [53, 839]"] ;
376 -> 377 ;
378 [label="gini = 0.0\nsamples = 1\nvalue = [1, 0]"] ;
377 -> 378 ;
379 [label="WORK_STATE_ALABAMA <= 0.5\ngini = 0.11\nsamples = 891\nvalue = [52, 839]"] ;
377 -> 379 ;
380 [label="gini = 0.105\nsamples = 883\nvalue = [49, 834]"] ;
379 -> 380 ;
381 [label="gini = 0.469\nsamples = 8\nvalue = [3, 5]"] ;
379 -> 381 ;
382 [label="CASE_PROCESSING_DURATION <= 982.0\ngini = 0.444\nsamples = 3\nvalue = [2, 1]"] ;
376 -> 382 ;
383 [label="gini = 0.0\nsamples = 1\nvalue = [0, 1]"] ;
382 -> 383 ;
384 [label="gini = 0.0\nsamples = 2\nvalue = [2, 0]"] ;
382 -> 384 ;
385 [label="CASE_PROCESSING_DURATION <= 968.5\ngini = 0.5\nsamples = 6\nvalue = [3, 3]"] ;
375 -> 385 ;
386 [label="gini = 0.0\nsamples = 3\nvalue = [0, 3]"] ;
385 -> 386 ;
387 [label="gini = 0.0\nsamples = 3\nvalue = [3, 0]"] ;
385 -> 387 ;
388 [label="CASE_PROCESSING_DURATION <= 1044.0\ngini = 0.282\nsamples = 112\nvalue = [19, 93]"] ;
374 -> 388 ;
389 [label="PAID_WAGE_PER_YEAR <= 73403.5\ngini = 0.205\nsamples = 95\nvalue = [11, 84]"] ;
388 -> 389 ;
390 [label="PAID_WAGE_PER_YEAR <= 57006.4\ngini = 0.15\nsamples = 86\nvalue = [7, 79]"] ;
389 -> 390 ;
391 [label="DAY_Tuesday <= 0.5\ngini = 0.386\nsamples = 23\nvalue = [6, 17]"] ;
390 -> 391 ;
392 [label="gini = 0.266\nsamples = 19\nvalue = [3, 16]"] ;
391 -> 392 ;
393 [label="gini = 0.375\nsamples = 4\nvalue = [3, 1]"] ;
391 -> 393 ;
394 [label="WORK_STATE_MARYLAND <= 0.5\ngini = 0.031\nsamples = 63\nvalue = [1, 62]"] ;
390 -> 394 ;
395 [label="gini = 0.0\nsamples = 60\nvalue = [0, 60]"] ;
394 -> 395 ;
396 [label="gini = 0.444\nsamples = 3\nvalue = [1, 2]"] ;
394 -> 396 ;
397 [label="PAID_WAGE_PER_YEAR <= 81066.5\ngini = 0.494\nsamples = 9\nvalue = [4, 5]"] ;
389 -> 397 ;
398 [label="PAID_WAGE_PER_YEAR <= 76182.535\ngini = 0.444\nsamples = 6\nvalue = [4, 2]"] ;
397 -> 398 ;
399 [label="gini = 0.444\nsamples = 3\nvalue = [1, 2]"] ;
398 -> 399 ;
400 [label="gini = 0.0\nsamples = 3\nvalue = [3, 0]"] ;
398 -> 400 ;
401 [label="gini = 0.0\nsamples = 3\nvalue = [0, 3]"] ;
397 -> 401 ;
402 [label="PAID_WAGE_PER_YEAR <= 62500.0\ngini = 0.498\nsamples = 17\nvalue = [8, 9]"] ;
388 -> 402 ;
403 [label="ANNUAL_PAID_PREVAILING_WAGE_RATIO <= 1.001\ngini = 0.444\nsamples = 12\nvalue = [8, 4]"] ;
402 -> 403 ;
404 [label="CASE_PROCESSING_DURATION <= 1095.0\ngini = 0.48\nsamples = 5\nvalue = [2, 3]"] ;
403 -> 404 ;
405 [label="gini = 0.0\nsamples = 2\nvalue = [0, 2]"] ;
404 -> 405 ;
406 [label="gini = 0.444\nsamples = 3\nvalue = [2, 1]"] ;
404 -> 406 ;
407 [label="CASE_RECEIVED_MONTH_April <= 0.5\ngini = 0.245\nsamples = 7\nvalue = [6, 1]"] ;
403 -> 407 ;
408 [label="gini = 0.0\nsamples = 6\nvalue = [6, 0]"] ;
407 -> 408 ;
409 [label="gini = 0.0\nsamples = 1\nvalue = [0, 1]"] ;
407 -> 409 ;
410 [label="gini = 0.0\nsamples = 5\nvalue = [0, 5]"] ;
402 -> 410 ;
411 [label="CASE_PROCESSING_DURATION <= 1059.0\ngini = 0.364\nsamples = 167\nvalue = [40, 127]"] ;
373 -> 411 ;
412 [label="WORK_STATE_OREGON <= 0.5\ngini = 0.278\nsamples = 138\nvalue = [23, 115]"] ;
411 -> 412 ;
413 [label="WORK_STATE_VIRGINIA <= 0.5\ngini = 0.252\nsamples = 135\nvalue = [20, 115]"] ;
412 -> 413 ;
414 [label="WORK_STATE_LOUISIANA <= 0.5\ngini = 0.206\nsamples = 120\nvalue = [14, 106]"] ;
413 -> 414 ;
415 [label="WORK_STATE_NORTH CAROLINA <= 0.5\ngini = 0.195\nsamples = 119\nvalue = [13, 106]"] ;
414 -> 415 ;
416 [label="gini = 0.174\nsamples = 114\nvalue = [11, 103]"] ;
415 -> 416 ;
417 [label="gini = 0.48\nsamples = 5\nvalue = [2, 3]"] ;
415 -> 417 ;
418 [label="gini = 0.0\nsamples = 1\nvalue = [1, 0]"] ;
414 -> 418 ;
419 [label="CASE_PROCESSING_DURATION <= 980.0\ngini = 0.48\nsamples = 15\nvalue = [6, 9]"] ;
413 -> 419 ;
420 [label="ANNUAL_PAID_PREVAILING_WAGE_RATIO <= 1.052\ngini = 0.298\nsamples = 11\nvalue = [2, 9]"] ;
419 -> 420 ;
421 [label="gini = 0.0\nsamples = 9\nvalue = [0, 9]"] ;
420 -> 421 ;
422 [label="gini = 0.0\nsamples = 2\nvalue = [2, 0]"] ;
420 -> 422 ;
423 [label="gini = 0.0\nsamples = 4\nvalue = [4, 0]"] ;
419 -> 423 ;
424 [label="gini = 0.0\nsamples = 3\nvalue = [3, 0]"] ;
412 -> 424 ;
425 [label="JOB_TITLE_SUBGROUP_assistant professor <= 0.5\ngini = 0.485\nsamples = 29\nvalue = [17, 12]"] ;
411 -> 425 ;
426 [label="CASE_PROCESSING_DURATION <= 1202.5\ngini = 0.386\nsamples = 23\nvalue = [17, 6]"] ;
425 -> 426 ;
427 [label="CASE_RECEIVED_MONTH_August <= 0.5\ngini = 0.308\nsamples = 21\nvalue = [17, 4]"] ;
426 -> 427 ;
428 [label="MONTH_July <= 0.5\ngini = 0.255\nsamples = 20\nvalue = [17, 3]"] ;
427 -> 428 ;
429 [label="gini = 0.188\nsamples = 19\nvalue = [17, 2]"] ;
428 -> 429 ;
430 [label="gini = 0.0\nsamples = 1\nvalue = [0, 1]"] ;
428 -> 430 ;
431 [label="gini = 0.0\nsamples = 1\nvalue = [0, 1]"] ;
427 -> 431 ;
432 [label="gini = 0.0\nsamples = 2\nvalue = [0, 2]"] ;
426 -> 432 ;
433 [label="gini = 0.0\nsamples = 6\nvalue = [0, 6]"] ;
425 -> 433 ;
434 [label="CASE_PROCESSING_DURATION <= 687.0\ngini = 0.317\nsamples = 238\nvalue = [47, 191]"] ;
334 -> 434 ;
435 [label="WORK_STATE_PENNSYLVANIA <= 0.5\ngini = 0.283\nsamples = 229\nvalue = [39, 190]"] ;
434 -> 435 ;
436 [label="WORK_STATE_IOWA <= 0.5\ngini = 0.239\nsamples = 216\nvalue = [30, 186]"] ;
435 -> 436 ;
437 [label="CASE_RECEIVED_MONTH_February <= 0.5\ngini = 0.216\nsamples = 211\nvalue = [26, 185]"] ;
436 -> 437 ;
438 [label="PREVAILING_WAGE_SUBMITTED_UNIT <= 3.0\ngini = 0.199\nsamples = 205\nvalue = [23, 182]"] ;
437 -> 438 ;
439 [label="WORK_STATE_MONTANA <= 0.5\ngini = 0.192\nsamples = 204\nvalue = [22, 182]"] ;
438 -> 439 ;
440 [label="CASE_RECEIVED_WEEKDAY_Friday <= 0.5\ngini = 0.185\nsamples = 203\nvalue = [21, 182]"] ;
439 -> 440 ;
441 [label="gini = 0.233\nsamples = 156\nvalue = [21, 135]"] ;
440 -> 441 ;
442 [label="gini = 0.0\nsamples = 47\nvalue = [0, 47]"] ;
440 -> 442 ;
443 [label="gini = 0.0\nsamples = 1\nvalue = [1, 0]"] ;
439 -> 443 ;
444 [label="gini = 0.0\nsamples = 1\nvalue = [1, 0]"] ;
438 -> 444 ;
445 [label="PREVAILING_WAGE_PER_YEAR <= 62119.0\ngini = 0.5\nsamples = 6\nvalue = [3, 3]"] ;
437 -> 445 ;
446 [label="PAID_WAGE_PER_YEAR <= 58273.0\ngini = 0.375\nsamples = 4\nvalue = [1, 3]"] ;
445 -> 446 ;
447 [label="gini = 0.0\nsamples = 1\nvalue = [1, 0]"] ;
446 -> 447 ;
448 [label="gini = 0.0\nsamples = 3\nvalue = [0, 3]"] ;
446 -> 448 ;
449 [label="gini = 0.0\nsamples = 2\nvalue = [2, 0]"] ;
445 -> 449 ;
450 [label="CASE_PROCESSING_DURATION <= 499.0\ngini = 0.32\nsamples = 5\nvalue = [4, 1]"] ;
436 -> 450 ;
451 [label="gini = 0.0\nsamples = 3\nvalue = [3, 0]"] ;
450 -> 451 ;
452 [label="CASE_PROCESSING_DURATION <= 506.0\ngini = 0.5\nsamples = 2\nvalue = [1, 1]"] ;
450 -> 452 ;
453 [label="gini = 0.0\nsamples = 1\nvalue = [0, 1]"] ;
452 -> 453 ;
454 [label="gini = 0.0\nsamples = 1\nvalue = [1, 0]"] ;
452 -> 454 ;
455 [label="CASE_PROCESSING_DURATION <= 237.5\ngini = 0.426\nsamples = 13\nvalue = [9, 4]"] ;
435 -> 455 ;
456 [label="gini = 0.0\nsamples = 2\nvalue = [0, 2]"] ;
455 -> 456 ;
457 [label="PAID_WAGE_PER_YEAR <= 65539.199\ngini = 0.298\nsamples = 11\nvalue = [9, 2]"] ;
455 -> 457 ;
458 [label="CASE_PROCESSING_DURATION <= 541.0\ngini = 0.444\nsamples = 3\nvalue = [1, 2]"] ;
457 -> 458 ;
459 [label="gini = 0.0\nsamples = 1\nvalue = [1, 0]"] ;
458 -> 459 ;
460 [label="gini = 0.0\nsamples = 2\nvalue = [0, 2]"] ;
458 -> 460 ;
461 [label="gini = 0.0\nsamples = 8\nvalue = [8, 0]"] ;
457 -> 461 ;
462 [label="CASE_RECEIVED_MONTH_November <= 0.5\ngini = 0.198\nsamples = 9\nvalue = [8, 1]"] ;
434 -> 462 ;
463 [label="gini = 0.0\nsamples = 8\nvalue = [8, 0]"] ;
462 -> 463 ;
464 [label="gini = 0.0\nsamples = 1\nvalue = [0, 1]"] ;
462 -> 464 ;
465 [label="CASE_PROCESSING_DURATION <= 620.0\ngini = 0.279\nsamples = 4359\nvalue = [732, 3627]"] ;
333 -> 465 ;
466 [label="ANNUAL_PAID_PREVAILING_WAGE_RATIO <= 1.001\ngini = 0.21\nsamples = 2977\nvalue = [354, 2623]"] ;
465 -> 466 ;
467 [label="WORK_STATE_OREGON <= 0.5\ngini = 0.255\nsamples = 1438\nvalue = [216, 1222]"] ;
466 -> 467 ;
468 [label="ANNUAL_PAID_PREVAILING_WAGE_RATIO <= 1.001\ngini = 0.247\nsamples = 1411\nvalue = [204, 1207]"] ;
467 -> 468 ;
469 [label="CASE_PROCESSING_DURATION <= 518.5\ngini = 0.245\nsamples = 1407\nvalue = [201, 1206]"] ;
468 -> 469 ;
470 [label="VISA_CLASS_greencard <= 0.5\ngini = 0.278\nsamples = 808\nvalue = [135, 673]"] ;
469 -> 470 ;
471 [label="CASE_PROCESSING_DURATION <= 335.5\ngini = 0.212\nsamples = 596\nvalue = [72, 524]"] ;
470 -> 471 ;
472 [label="ANNUAL_PAID_PREVAILING_WAGE_RATIO <= 1.0\ngini = 0.123\nsamples = 319\nvalue = [21, 298]"] ;
471 -> 472 ;
473 [label="gini = 0.109\nsamples = 312\nvalue = [18, 294]"] ;
472 -> 473 ;
474 [label="gini = 0.49\nsamples = 7\nvalue = [3, 4]"] ;
472 -> 474 ;
475 [label="CASE_RECEIVED_MONTH_December <= 0.5\ngini = 0.3\nsamples = 277\nvalue = [51, 226]"] ;
471 -> 475 ;
476 [label="gini = 0.261\nsamples = 253\nvalue = [39, 214]"] ;
475 -> 476 ;
477 [label="gini = 0.5\nsamples = 24\nvalue = [12, 12]"] ;
475 -> 477 ;
478 [label="JOB_TITLE_SUBGROUP_business analyst <= 0.5\ngini = 0.418\nsamples = 212\nvalue = [63, 149]"] ;
470 -> 478 ;
479 [label="CASE_PROCESSING_DURATION <= 272.5\ngini = 0.472\nsamples = 152\nvalue = [58, 94]"] ;
478 -> 479 ;
480 [label="gini = 0.32\nsamples = 75\nvalue = [15, 60]"] ;
479 -> 480 ;
481 [label="gini = 0.493\nsamples = 77\nvalue = [43, 34]"] ;
479 -> 481 ;
482 [label="MONTH_August <= 0.5\ngini = 0.153\nsamples = 60\nvalue = [5, 55]"] ;
478 -> 482 ;
483 [label="gini = 0.098\nsamples = 58\nvalue = [3, 55]"] ;
482 -> 483 ;
484 [label="gini = 0.0\nsamples = 2\nvalue = [2, 0]"] ;
482 -> 484 ;
485 [label="VISA_CLASS_greencard <= 0.5\ngini = 0.196\nsamples = 599\nvalue = [66, 533]"] ;
469 -> 485 ;
486 [label="WORK_STATE_COLORADO <= 0.5\ngini = 0.303\nsamples = 129\nvalue = [24, 105]"] ;
485 -> 486 ;
487 [label="PAID_WAGE_PER_YEAR <= 78811.102\ngini = 0.295\nsamples = 128\nvalue = [23, 105]"] ;
486 -> 487 ;
488 [label="gini = 0.0\nsamples = 16\nvalue = [0, 16]"] ;
487 -> 488 ;
489 [label="gini = 0.326\nsamples = 112\nvalue = [23, 89]"] ;
487 -> 489 ;
490 [label="gini = 0.0\nsamples = 1\nvalue = [1, 0]"] ;
486 -> 490 ;
491 [label="WORK_STATE_NEBRASKA <= 0.5\ngini = 0.163\nsamples = 470\nvalue = [42, 428]"] ;
485 -> 491 ;
492 [label="WORK_STATE_TENNESSEE <= 0.5\ngini = 0.157\nsamples = 467\nvalue = [40, 427]"] ;
491 -> 492 ;
493 [label="gini = 0.153\nsamples = 466\nvalue = [39, 427]"] ;
492 -> 493 ;
494 [label="gini = 0.0\nsamples = 1\nvalue = [1, 0]"] ;
492 -> 494 ;
495 [label="CASE_PROCESSING_DURATION <= 591.5\ngini = 0.444\nsamples = 3\nvalue = [2, 1]"] ;
491 -> 495 ;
496 [label="gini = 0.0\nsamples = 2\nvalue = [2, 0]"] ;
495 -> 496 ;
497 [label="gini = 0.0\nsamples = 1\nvalue = [0, 1]"] ;
495 -> 497 ;
498 [label="CASE_PROCESSING_DURATION <= 572.0\ngini = 0.375\nsamples = 4\nvalue = [3, 1]"] ;
468 -> 498 ;
499 [label="gini = 0.0\nsamples = 3\nvalue = [3, 0]"] ;
498 -> 499 ;
500 [label="gini = 0.0\nsamples = 1\nvalue = [0, 1]"] ;
498 -> 500 ;
501 [label="VISA_CLASS_greencard <= 0.5\ngini = 0.494\nsamples = 27\nvalue = [12, 15]"] ;
467 -> 501 ;
502 [label="CASE_PROCESSING_DURATION <= 291.0\ngini = 0.26\nsamples = 13\nvalue = [11, 2]"] ;
501 -> 502 ;
503 [label="CASE_PROCESSING_DURATION <= 232.0\ngini = 0.444\nsamples = 3\nvalue = [1, 2]"] ;
502 -> 503 ;
504 [label="gini = 0.0\nsamples = 1\nvalue = [1, 0]"] ;
503 -> 504 ;
505 [label="gini = 0.0\nsamples = 2\nvalue = [0, 2]"] ;
503 -> 505 ;
506 [label="gini = 0.0\nsamples = 10\nvalue = [10, 0]"] ;
502 -> 506 ;
507 [label="CASE_PROCESSING_DURATION <= 498.5\ngini = 0.133\nsamples = 14\nvalue = [1, 13]"] ;
501 -> 507 ;
508 [label="gini = 0.0\nsamples = 1\nvalue = [1, 0]"] ;
507 -> 508 ;
509 [label="gini = 0.0\nsamples = 13\nvalue = [0, 13]"] ;
507 -> 509 ;
510 [label="WORK_STATE_ARIZONA <= 0.5\ngini = 0.163\nsamples = 1539\nvalue = [138, 1401]"] ;
466 -> 510 ;
511 [label="CASE_RECEIVED_MONTH_June <= 0.5\ngini = 0.158\nsamples = 1527\nvalue = [132, 1395]"] ;
510 -> 511 ;
512 [label="PREVAILING_WAGE_PER_YEAR <= 73829.5\ngini = 0.148\nsamples = 1392\nvalue = [112, 1280]"] ;
511 -> 512 ;
513 [label="PREVAILING_WAGE_PER_YEAR <= 73777.5\ngini = 0.48\nsamples = 5\nvalue = [2, 3]"] ;
512 -> 513 ;
514 [label="gini = 0.0\nsamples = 3\nvalue = [0, 3]"] ;
513 -> 514 ;
515 [label="gini = 0.0\nsamples = 2\nvalue = [2, 0]"] ;
513 -> 515 ;
516 [label="WORK_STATE_SOUTH CAROLINA <= 0.5\ngini = 0.146\nsamples = 1387\nvalue = [110, 1277]"] ;
512 -> 516 ;
517 [label="PAID_WAGE_PER_YEAR <= 126390.0\ngini = 0.145\nsamples = 1385\nvalue = [109, 1276]"] ;
516 -> 517 ;
518 [label="PAID_WAGE_PER_YEAR <= 126203.602\ngini = 0.159\nsamples = 1053\nvalue = [92, 961]"] ;
517 -> 518 ;
519 [label="gini = 0.158\nsamples = 1052\nvalue = [91, 961]"] ;
518 -> 519 ;
520 [label="gini = 0.0\nsamples = 1\nvalue = [1, 0]"] ;
518 -> 520 ;
521 [label="PREVAILING_WAGE_PER_YEAR <= 73881.699\ngini = 0.097\nsamples = 332\nvalue = [17, 315]"] ;
517 -> 521 ;
522 [label="gini = 0.5\nsamples = 2\nvalue = [1, 1]"] ;
521 -> 522 ;
523 [label="gini = 0.092\nsamples = 330\nvalue = [16, 314]"] ;
521 -> 523 ;
524 [label="CASE_RECEIVED_WEEKDAY_Wednesday <= 0.5\ngini = 0.5\nsamples = 2\nvalue = [1, 1]"] ;
516 -> 524 ;
525 [label="gini = 0.0\nsamples = 1\nvalue = [0, 1]"] ;
524 -> 525 ;
526 [label="gini = 0.0\nsamples = 1\nvalue = [1, 0]"] ;
524 -> 526 ;
527 [label="PAID_WAGE_PER_YEAR <= 144500.0\ngini = 0.252\nsamples = 135\nvalue = [20, 115]"] ;
511 -> 527 ;
528 [label="PREVAILING_WAGE_PER_YEAR <= 73944.0\ngini = 0.193\nsamples = 120\nvalue = [13, 107]"] ;
527 -> 528 ;
529 [label="gini = 0.0\nsamples = 1\nvalue = [1, 0]"] ;
528 -> 529 ;
530 [label="CASE_PROCESSING_DURATION <= 610.0\ngini = 0.181\nsamples = 119\nvalue = [12, 107]"] ;
528 -> 530 ;
531 [label="ANNUAL_PAID_PREVAILING_WAGE_RATIO <= 1.21\ngini = 0.159\nsamples = 115\nvalue = [10, 105]"] ;
530 -> 531 ;
532 [label="gini = 0.107\nsamples = 88\nvalue = [5, 83]"] ;
531 -> 532 ;
533 [label="gini = 0.302\nsamples = 27\nvalue = [5, 22]"] ;
531 -> 533 ;
534 [label="ANNUAL_PAID_PREVAILING_WAGE_RATIO <= 1.077\ngini = 0.5\nsamples = 4\nvalue = [2, 2]"] ;
530 -> 534 ;
535 [label="gini = 0.0\nsamples = 2\nvalue = [2, 0]"] ;
534 -> 535 ;
536 [label="gini = 0.0\nsamples = 2\nvalue = [0, 2]"] ;
534 -> 536 ;
537 [label="ANNUAL_PAID_PREVAILING_WAGE_RATIO <= 1.55\ngini = 0.498\nsamples = 15\nvalue = [7, 8]"] ;
527 -> 537 ;
538 [label="PREVAILING_WAGE_PER_YEAR <= 133620.5\ngini = 0.486\nsamples = 12\nvalue = [7, 5]"] ;
537 -> 538 ;
539 [label="CASE_PROCESSING_DURATION <= 574.0\ngini = 0.245\nsamples = 7\nvalue = [6, 1]"] ;
538 -> 539 ;
540 [label="gini = 0.0\nsamples = 5\nvalue = [5, 0]"] ;
539 -> 540 ;
541 [label="gini = 0.5\nsamples = 2\nvalue = [1, 1]"] ;
539 -> 541 ;
542 [label="PREVAILING_WAGE_PER_YEAR <= 174770.0\ngini = 0.32\nsamples = 5\nvalue = [1, 4]"] ;
538 -> 542 ;
543 [label="gini = 0.0\nsamples = 4\nvalue = [0, 4]"] ;
542 -> 543 ;
544 [label="gini = 0.0\nsamples = 1\nvalue = [1, 0]"] ;
542 -> 544 ;
545 [label="gini = 0.0\nsamples = 3\nvalue = [0, 3]"] ;
537 -> 545 ;
546 [label="PREVAILING_WAGE_PER_YEAR <= 92206.5\ngini = 0.5\nsamples = 12\nvalue = [6, 6]"] ;
510 -> 546 ;
547 [label="PREVAILING_WAGE_PER_YEAR <= 76086.0\ngini = 0.278\nsamples = 6\nvalue = [1, 5]"] ;
546 -> 547 ;
548 [label="gini = 0.0\nsamples = 1\nvalue = [1, 0]"] ;
547 -> 548 ;
549 [label="gini = 0.0\nsamples = 5\nvalue = [0, 5]"] ;
547 -> 549 ;
550 [label="CASE_PROCESSING_DURATION <= 277.5\ngini = 0.278\nsamples = 6\nvalue = [5, 1]"] ;
546 -> 550 ;
551 [label="gini = 0.0\nsamples = 1\nvalue = [0, 1]"] ;
550 -> 551 ;
552 [label="gini = 0.0\nsamples = 5\nvalue = [5, 0]"] ;
550 -> 552 ;
553 [label="VISA_CLASS_greencard <= 0.5\ngini = 0.397\nsamples = 1382\nvalue = [378, 1004]"] ;
465 -> 553 ;
554 [label="CASE_PROCESSING_DURATION <= 812.5\ngini = 0.333\nsamples = 1202\nvalue = [254, 948]"] ;
553 -> 554 ;
555 [label="WORK_STATE_ARIZONA <= 0.5\ngini = 0.285\nsamples = 551\nvalue = [95, 456]"] ;
554 -> 555 ;
556 [label="DAY_Sunday <= 0.5\ngini = 0.276\nsamples = 545\nvalue = [90, 455]"] ;
555 -> 556 ;
557 [label="WORK_STATE_OKLAHOMA <= 0.5\ngini = 0.272\nsamples = 543\nvalue = [88, 455]"] ;
556 -> 557 ;
558 [label="WORK_STATE_KANSAS <= 0.5\ngini = 0.27\nsamples = 542\nvalue = [87, 455]"] ;
557 -> 558 ;
559 [label="WORK_STATE_MINNESOTA <= 0.5\ngini = 0.267\nsamples = 541\nvalue = [86, 455]"] ;
558 -> 559 ;
560 [label="gini = 0.265\nsamples = 540\nvalue = [85, 455]"] ;
559 -> 560 ;
561 [label="gini = 0.0\nsamples = 1\nvalue = [1, 0]"] ;
559 -> 561 ;
562 [label="gini = 0.0\nsamples = 1\nvalue = [1, 0]"] ;
558 -> 562 ;
563 [label="gini = 0.0\nsamples = 1\nvalue = [1, 0]"] ;
557 -> 563 ;
564 [label="gini = 0.0\nsamples = 2\nvalue = [2, 0]"] ;
556 -> 564 ;
565 [label="PAID_WAGE_SUBMITTED_UNIT <= 3.0\ngini = 0.278\nsamples = 6\nvalue = [5, 1]"] ;
555 -> 565 ;
566 [label="gini = 0.0\nsamples = 5\nvalue = [5, 0]"] ;
565 -> 566 ;
567 [label="gini = 0.0\nsamples = 1\nvalue = [0, 1]"] ;
565 -> 567 ;
568 [label="PREVAILING_WAGE_PER_YEAR <= 121815.0\ngini = 0.369\nsamples = 651\nvalue = [159, 492]"] ;
554 -> 568 ;
569 [label="WORK_STATE_COLORADO <= 0.5\ngini = 0.356\nsamples = 613\nvalue = [142, 471]"] ;
568 -> 569 ;
570 [label="MONTH_July <= 0.5\ngini = 0.351\nsamples = 607\nvalue = [138, 469]"] ;
569 -> 570 ;
571 [label="JOB_TITLE_SUBGROUP_business analyst <= 0.5\ngini = 0.362\nsamples = 564\nvalue = [134, 430]"] ;
570 -> 571 ;
572 [label="CASE_PROCESSING_DURATION <= 816.5\ngini = 0.372\nsamples = 538\nvalue = [133, 405]"] ;
571 -> 572 ;
573 [label="gini = 0.5\nsamples = 10\nvalue = [5, 5]"] ;
572 -> 573 ;
574 [label="gini = 0.367\nsamples = 528\nvalue = [128, 400]"] ;
572 -> 574 ;
575 [label="WORK_STATE_WASHINGTON <= 0.5\ngini = 0.074\nsamples = 26\nvalue = [1, 25]"] ;
571 -> 575 ;
576 [label="gini = 0.0\nsamples = 24\nvalue = [0, 24]"] ;
575 -> 576 ;
577 [label="gini = 0.5\nsamples = 2\nvalue = [1, 1]"] ;
575 -> 577 ;
578 [label="WORK_STATE_CONNECTICUT <= 0.5\ngini = 0.169\nsamples = 43\nvalue = [4, 39]"] ;
570 -> 578 ;
579 [label="WORK_STATE_MASSACHUSETTS <= 0.5\ngini = 0.133\nsamples = 42\nvalue = [3, 39]"] ;
578 -> 579 ;
580 [label="gini = 0.093\nsamples = 41\nvalue = [2, 39]"] ;
579 -> 580 ;
581 [label="gini = 0.0\nsamples = 1\nvalue = [1, 0]"] ;
579 -> 581 ;
582 [label="gini = 0.0\nsamples = 1\nvalue = [1, 0]"] ;
578 -> 582 ;
583 [label="CASE_RECEIVED_MONTH_June <= 0.5\ngini = 0.444\nsamples = 6\nvalue = [4, 2]"] ;
569 -> 583 ;
584 [label="CASE_RECEIVED_MONTH_May <= 0.5\ngini = 0.32\nsamples = 5\nvalue = [4, 1]"] ;
583 -> 584 ;
585 [label="gini = 0.0\nsamples = 4\nvalue = [4, 0]"] ;
584 -> 585 ;
586 [label="gini = 0.0\nsamples = 1\nvalue = [0, 1]"] ;
584 -> 586 ;
587 [label="gini = 0.0\nsamples = 1\nvalue = [0, 1]"] ;
583 -> 587 ;
588 [label="CASE_PROCESSING_DURATION <= 941.5\ngini = 0.494\nsamples = 38\nvalue = [17, 21]"] ;
568 -> 588 ;
589 [label="DAY_Saturday <= 0.5\ngini = 0.32\nsamples = 20\nvalue = [4, 16]"] ;
588 -> 589 ;
590 [label="PREVAILING_WAGE_PER_YEAR <= 122741.0\ngini = 0.266\nsamples = 19\nvalue = [3, 16]"] ;
589 -> 590 ;
591 [label="CASE_PROCESSING_DURATION <= 854.5\ngini = 0.5\nsamples = 4\nvalue = [2, 2]"] ;
590 -> 591 ;
592 [label="gini = 0.0\nsamples = 2\nvalue = [0, 2]"] ;
591 -> 592 ;
593 [label="gini = 0.0\nsamples = 2\nvalue = [2, 0]"] ;
591 -> 593 ;
594 [label="CASE_PROCESSING_DURATION <= 833.0\ngini = 0.124\nsamples = 15\nvalue = [1, 14]"] ;
590 -> 594 ;
595 [label="gini = 0.5\nsamples = 2\nvalue = [1, 1]"] ;
594 -> 595 ;
596 [label="gini = 0.0\nsamples = 13\nvalue = [0, 13]"] ;
594 -> 596 ;
597 [label="gini = 0.0\nsamples = 1\nvalue = [1, 0]"] ;
589 -> 597 ;
598 [label="DAY_Friday <= 0.5\ngini = 0.401\nsamples = 18\nvalue = [13, 5]"] ;
588 -> 598 ;
599 [label="MONTH_January <= 0.5\ngini = 0.153\nsamples = 12\nvalue = [11, 1]"] ;
598 -> 599 ;
600 [label="gini = 0.0\nsamples = 11\nvalue = [11, 0]"] ;
599 -> 600 ;
601 [label="gini = 0.0\nsamples = 1\nvalue = [0, 1]"] ;
599 -> 601 ;
602 [label="ANNUAL_PAID_PREVAILING_WAGE_RATIO <= 1.24\ngini = 0.444\nsamples = 6\nvalue = [2, 4]"] ;
598 -> 602 ;
603 [label="gini = 0.0\nsamples = 4\nvalue = [0, 4]"] ;
602 -> 603 ;
604 [label="gini = 0.0\nsamples = 2\nvalue = [2, 0]"] ;
602 -> 604 ;
605 [label="CASE_PROCESSING_DURATION <= 690.5\ngini = 0.429\nsamples = 180\nvalue = [124, 56]"] ;
553 -> 605 ;
606 [label="PREVAILING_WAGE_PER_YEAR <= 79809.5\ngini = 0.491\nsamples = 46\nvalue = [20, 26]"] ;
605 -> 606 ;
607 [label="DAY_Tuesday <= 0.5\ngini = 0.245\nsamples = 7\nvalue = [6, 1]"] ;
606 -> 607 ;
608 [label="gini = 0.0\nsamples = 6\nvalue = [6, 0]"] ;
607 -> 608 ;
609 [label="gini = 0.0\nsamples = 1\nvalue = [0, 1]"] ;
607 -> 609 ;
610 [label="PREVAILING_WAGE_PER_YEAR <= 87204.0\ngini = 0.46\nsamples = 39\nvalue = [14, 25]"] ;
606 -> 610 ;
611 [label="gini = 0.0\nsamples = 6\nvalue = [0, 6]"] ;
610 -> 611 ;
612 [label="PAID_WAGE_PER_YEAR <= 93019.0\ngini = 0.489\nsamples = 33\nvalue = [14, 19]"] ;
610 -> 612 ;
613 [label="WORK_STATE_MASSACHUSETTS <= 0.5\ngini = 0.346\nsamples = 9\nvalue = [7, 2]"] ;
612 -> 613 ;
614 [label="gini = 0.0\nsamples = 7\nvalue = [7, 0]"] ;
613 -> 614 ;
615 [label="gini = 0.0\nsamples = 2\nvalue = [0, 2]"] ;
613 -> 615 ;
616 [label="PAID_WAGE_PER_YEAR <= 134500.0\ngini = 0.413\nsamples = 24\nvalue = [7, 17]"] ;
612 -> 616 ;
617 [label="CASE_PROCESSING_DURATION <= 650.5\ngini = 0.351\nsamples = 22\nvalue = [5, 17]"] ;
616 -> 617 ;
618 [label="gini = 0.473\nsamples = 13\nvalue = [5, 8]"] ;
617 -> 618 ;
619 [label="gini = 0.0\nsamples = 9\nvalue = [0, 9]"] ;
617 -> 619 ;
620 [label="gini = 0.0\nsamples = 2\nvalue = [2, 0]"] ;
616 -> 620 ;
621 [label="JOB_TITLE_SUBGROUP_business analyst <= 0.5\ngini = 0.348\nsamples = 134\nvalue = [104, 30]"] ;
605 -> 621 ;
622 [label="PREVAILING_WAGE_PER_YEAR <= 101577.0\ngini = 0.252\nsamples = 108\nvalue = [92, 16]"] ;
621 -> 622 ;
623 [label="WORK_STATE_DISTRICT OF COLUMBIA <= 0.5\ngini = 0.184\nsamples = 88\nvalue = [79, 9]"] ;
622 -> 623 ;
624 [label="WORK_STATE_WISCONSIN <= 0.5\ngini = 0.167\nsamples = 87\nvalue = [79, 8]"] ;
623 -> 624 ;
625 [label="CASE_RECEIVED_WEEKDAY_Friday <= 0.5\ngini = 0.15\nsamples = 86\nvalue = [79, 7]"] ;
624 -> 625 ;
626 [label="gini = 0.061\nsamples = 64\nvalue = [62, 2]"] ;
625 -> 626 ;
627 [label="gini = 0.351\nsamples = 22\nvalue = [17, 5]"] ;
625 -> 627 ;
628 [label="gini = 0.0\nsamples = 1\nvalue = [0, 1]"] ;
624 -> 628 ;
629 [label="gini = 0.0\nsamples = 1\nvalue = [0, 1]"] ;
623 -> 629 ;
630 [label="PREVAILING_WAGE_PER_YEAR <= 109273.0\ngini = 0.455\nsamples = 20\nvalue = [13, 7]"] ;
622 -> 630 ;
631 [label="CASE_PROCESSING_DURATION <= 807.5\ngini = 0.494\nsamples = 9\nvalue = [4, 5]"] ;
630 -> 631 ;
632 [label="gini = 0.0\nsamples = 3\nvalue = [0, 3]"] ;
631 -> 632 ;
633 [label="CASE_PROCESSING_DURATION <= 896.5\ngini = 0.444\nsamples = 6\nvalue = [4, 2]"] ;
631 -> 633 ;
634 [label="gini = 0.0\nsamples = 3\nvalue = [3, 0]"] ;
633 -> 634 ;
635 [label="gini = 0.444\nsamples = 3\nvalue = [1, 2]"] ;
633 -> 635 ;
636 [label="CASE_RECEIVED_MONTH_April <= 0.5\ngini = 0.298\nsamples = 11\nvalue = [9, 2]"] ;
630 -> 636 ;
637 [label="CASE_RECEIVED_MONTH_November <= 0.5\ngini = 0.18\nsamples = 10\nvalue = [9, 1]"] ;
636 -> 637 ;
638 [label="gini = 0.0\nsamples = 8\nvalue = [8, 0]"] ;
637 -> 638 ;
639 [label="gini = 0.5\nsamples = 2\nvalue = [1, 1]"] ;
637 -> 639 ;
640 [label="gini = 0.0\nsamples = 1\nvalue = [0, 1]"] ;
636 -> 640 ;
641 [label="ANNUAL_PAID_PREVAILING_WAGE_RATIO <= 1.0\ngini = 0.497\nsamples = 26\nvalue = [12, 14]"] ;
621 -> 641 ;
642 [label="CASE_PROCESSING_DURATION <= 795.5\ngini = 0.444\nsamples = 21\nvalue = [7, 14]"] ;
641 -> 642 ;
643 [label="CASE_PROCESSING_DURATION <= 753.0\ngini = 0.48\nsamples = 10\nvalue = [6, 4]"] ;
642 -> 643 ;
644 [label="gini = 0.0\nsamples = 4\nvalue = [0, 4]"] ;
643 -> 644 ;
645 [label="gini = 0.0\nsamples = 6\nvalue = [6, 0]"] ;
643 -> 645 ;
646 [label="MONTH_June <= 0.5\ngini = 0.165\nsamples = 11\nvalue = [1, 10]"] ;
642 -> 646 ;
647 [label="gini = 0.0\nsamples = 10\nvalue = [0, 10]"] ;
646 -> 647 ;
648 [label="gini = 0.0\nsamples = 1\nvalue = [1, 0]"] ;
646 -> 648 ;
649 [label="gini = 0.0\nsamples = 5\nvalue = [5, 0]"] ;
641 -> 649 ;
650 [label="CASE_PROCESSING_DURATION <= 1029.0\ngini = 0.48\nsamples = 811\nvalue = [325, 486]"] ;
332 -> 650 ;
651 [label="PREVAILING_WAGE_PER_YEAR <= 47091.5\ngini = 0.419\nsamples = 673\nvalue = [201, 472]"] ;
650 -> 651 ;
652 [label="VISA_CLASS_greencard <= 0.5\ngini = 0.294\nsamples = 508\nvalue = [91, 417]"] ;
651 -> 652 ;
653 [label="WORK_STATE_MARYLAND <= 0.5\ngini = 0.04\nsamples = 248\nvalue = [5, 243]"] ;
652 -> 653 ;
654 [label="WORK_STATE_ILLINOIS <= 0.5\ngini = 0.025\nsamples = 237\nvalue = [3, 234]"] ;
653 -> 654 ;
655 [label="CASE_RECEIVED_MONTH_October <= 0.5\ngini = 0.017\nsamples = 234\nvalue = [2, 232]"] ;
654 -> 655 ;
656 [label="CASE_RECEIVED_MONTH_August <= 0.5\ngini = 0.009\nsamples = 225\nvalue = [1, 224]"] ;
655 -> 656 ;
657 [label="gini = 0.0\nsamples = 180\nvalue = [0, 180]"] ;
656 -> 657 ;
658 [label="PREVAILING_WAGE_PER_YEAR <= 44210.0\ngini = 0.043\nsamples = 45\nvalue = [1, 44]"] ;
656 -> 658 ;
659 [label="gini = 0.0\nsamples = 38\nvalue = [0, 38]"] ;
658 -> 659 ;
660 [label="CASE_PROCESSING_DURATION <= 524.0\ngini = 0.245\nsamples = 7\nvalue = [1, 6]"] ;
658 -> 660 ;
661 [label="gini = 0.0\nsamples = 1\nvalue = [1, 0]"] ;
660 -> 661 ;
662 [label="gini = 0.0\nsamples = 6\nvalue = [0, 6]"] ;
660 -> 662 ;
663 [label="PAID_WAGE_PER_YEAR <= 36323.5\ngini = 0.198\nsamples = 9\nvalue = [1, 8]"] ;
655 -> 663 ;
664 [label="gini = 0.0\nsamples = 1\nvalue = [1, 0]"] ;
663 -> 664 ;
665 [label="gini = 0.0\nsamples = 8\nvalue = [0, 8]"] ;
663 -> 665 ;
666 [label="MONTH_April <= 0.5\ngini = 0.444\nsamples = 3\nvalue = [1, 2]"] ;
654 -> 666 ;
667 [label="gini = 0.0\nsamples = 2\nvalue = [0, 2]"] ;
666 -> 667 ;
668 [label="gini = 0.0\nsamples = 1\nvalue = [1, 0]"] ;
666 -> 668 ;
669 [label="DAY_Tuesday <= 0.5\ngini = 0.298\nsamples = 11\nvalue = [2, 9]"] ;
653 -> 669 ;
670 [label="gini = 0.0\nsamples = 8\nvalue = [0, 8]"] ;
669 -> 670 ;
671 [label="PAID_WAGE_PER_YEAR <= 36195.4\ngini = 0.444\nsamples = 3\nvalue = [2, 1]"] ;
669 -> 671 ;
672 [label="gini = 0.0\nsamples = 1\nvalue = [0, 1]"] ;
671 -> 672 ;
673 [label="gini = 0.0\nsamples = 2\nvalue = [2, 0]"] ;
671 -> 673 ;
674 [label="CASE_PROCESSING_DURATION <= 763.5\ngini = 0.443\nsamples = 260\nvalue = [86, 174]"] ;
652 -> 674 ;
675 [label="PAID_WAGE_PER_YEAR <= 45515.0\ngini = 0.348\nsamples = 223\nvalue = [50, 173]"] ;
674 -> 675 ;
676 [label="CASE_PROCESSING_DURATION <= 497.0\ngini = 0.458\nsamples = 110\nvalue = [39, 71]"] ;
675 -> 676 ;
677 [label="CASE_PROCESSING_DURATION <= 252.0\ngini = 0.428\nsamples = 29\nvalue = [20, 9]"] ;
676 -> 677 ;
678 [label="ANNUAL_PAID_PREVAILING_WAGE_RATIO <= 1.07\ngini = 0.444\nsamples = 9\nvalue = [3, 6]"] ;
677 -> 678 ;
679 [label="WORK_STATE_VIRGINIA <= 0.5\ngini = 0.245\nsamples = 7\nvalue = [1, 6]"] ;
678 -> 679 ;
680 [label="gini = 0.0\nsamples = 6\nvalue = [0, 6]"] ;
679 -> 680 ;
681 [label="gini = 0.0\nsamples = 1\nvalue = [1, 0]"] ;
679 -> 681 ;
682 [label="gini = 0.0\nsamples = 2\nvalue = [2, 0]"] ;
678 -> 682 ;
683 [label="WORK_STATE_TEXAS <= 0.5\ngini = 0.255\nsamples = 20\nvalue = [17, 3]"] ;
677 -> 683 ;
684 [label="DAY_Saturday <= 0.5\ngini = 0.188\nsamples = 19\nvalue = [17, 2]"] ;
683 -> 684 ;
685 [label="gini = 0.111\nsamples = 17\nvalue = [16, 1]"] ;
684 -> 685 ;
686 [label="gini = 0.5\nsamples = 2\nvalue = [1, 1]"] ;
684 -> 686 ;
687 [label="gini = 0.0\nsamples = 1\nvalue = [0, 1]"] ;
683 -> 687 ;
688 [label="CASE_PROCESSING_DURATION <= 621.0\ngini = 0.359\nsamples = 81\nvalue = [19, 62]"] ;
676 -> 688 ;
689 [label="MONTH_June <= 0.5\ngini = 0.302\nsamples = 70\nvalue = [13, 57]"] ;
688 -> 689 ;
690 [label="PREVAILING_WAGE_PER_YEAR <= 31722.0\ngini = 0.191\nsamples = 56\nvalue = [6, 50]"] ;
689 -> 690 ;
691 [label="gini = 0.375\nsamples = 4\nvalue = [3, 1]"] ;
690 -> 691 ;
692 [label="gini = 0.109\nsamples = 52\nvalue = [3, 49]"] ;
690 -> 692 ;
693 [label="CASE_RECEIVED_WEEKDAY_Friday <= 0.5\ngini = 0.5\nsamples = 14\nvalue = [7, 7]"] ;
689 -> 693 ;
694 [label="gini = 0.463\nsamples = 11\nvalue = [7, 4]"] ;
693 -> 694 ;
695 [label="gini = 0.0\nsamples = 3\nvalue = [0, 3]"] ;
693 -> 695 ;
696 [label="PREVAILING_WAGE_PER_YEAR <= 34710.5\ngini = 0.496\nsamples = 11\nvalue = [6, 5]"] ;
688 -> 696 ;
697 [label="gini = 0.0\nsamples = 3\nvalue = [0, 3]"] ;
696 -> 697 ;
698 [label="CASE_RECEIVED_WEEKDAY_Monday <= 0.5\ngini = 0.375\nsamples = 8\nvalue = [6, 2]"] ;
696 -> 698 ;
699 [label="gini = 0.245\nsamples = 7\nvalue = [6, 1]"] ;
698 -> 699 ;
700 [label="gini = 0.0\nsamples = 1\nvalue = [0, 1]"] ;
698 -> 700 ;
701 [label="CASE_RECEIVED_MONTH_July <= 0.5\ngini = 0.176\nsamples = 113\nvalue = [11, 102]"] ;
675 -> 701 ;
702 [label="CASE_PROCESSING_DURATION <= 673.0\ngini = 0.137\nsamples = 108\nvalue = [8, 100]"] ;
701 -> 702 ;
703 [label="CASE_PROCESSING_DURATION <= 349.0\ngini = 0.108\nsamples = 105\nvalue = [6, 99]"] ;
702 -> 703 ;
704 [label="PAID_WAGE_PER_YEAR <= 48000.5\ngini = 0.211\nsamples = 50\nvalue = [6, 44]"] ;
703 -> 704 ;
705 [label="gini = 0.5\nsamples = 10\nvalue = [5, 5]"] ;
704 -> 705 ;
706 [label="gini = 0.049\nsamples = 40\nvalue = [1, 39]"] ;
704 -> 706 ;
707 [label="gini = 0.0\nsamples = 55\nvalue = [0, 55]"] ;
703 -> 707 ;
708 [label="CASE_RECEIVED_WEEKDAY_Monday <= 0.5\ngini = 0.444\nsamples = 3\nvalue = [2, 1]"] ;
702 -> 708 ;
709 [label="gini = 0.0\nsamples = 2\nvalue = [2, 0]"] ;
708 -> 709 ;
710 [label="gini = 0.0\nsamples = 1\nvalue = [0, 1]"] ;
708 -> 710 ;
711 [label="CASE_PROCESSING_DURATION <= 261.5\ngini = 0.48\nsamples = 5\nvalue = [3, 2]"] ;
701 -> 711 ;
712 [label="gini = 0.0\nsamples = 3\nvalue = [3, 0]"] ;
711 -> 712 ;
713 [label="gini = 0.0\nsamples = 2\nvalue = [0, 2]"] ;
711 -> 713 ;
714 [label="WORK_STATE_OREGON <= 0.5\ngini = 0.053\nsamples = 37\nvalue = [36, 1]"] ;
674 -> 714 ;
715 [label="gini = 0.0\nsamples = 36\nvalue = [36, 0]"] ;
714 -> 715 ;
716 [label="gini = 0.0\nsamples = 1\nvalue = [0, 1]"] ;
714 -> 716 ;
717 [label="WORK_STATE_MARYLAND <= 0.5\ngini = 0.444\nsamples = 165\nvalue = [110, 55]"] ;
651 -> 717 ;
718 [label="CASE_PROCESSING_DURATION <= 739.0\ngini = 0.489\nsamples = 82\nvalue = [35, 47]"] ;
717 -> 718 ;
719 [label="ANNUAL_PAID_PREVAILING_WAGE_RATIO <= 1.005\ngini = 0.451\nsamples = 70\nvalue = [24, 46]"] ;
718 -> 719 ;
720 [label="ANNUAL_PAID_PREVAILING_WAGE_RATIO <= 1.001\ngini = 0.486\nsamples = 53\nvalue = [22, 31]"] ;
719 -> 720 ;
721 [label="DAY_Friday <= 0.5\ngini = 0.454\nsamples = 46\nvalue = [16, 30]"] ;
720 -> 721 ;
722 [label="PAID_WAGE_PER_YEAR <= 47450.0\ngini = 0.488\nsamples = 38\nvalue = [16, 22]"] ;
721 -> 722 ;
723 [label="gini = 0.0\nsamples = 3\nvalue = [3, 0]"] ;
722 -> 723 ;
724 [label="MONTH_June <= 0.5\ngini = 0.467\nsamples = 35\nvalue = [13, 22]"] ;
722 -> 724 ;
725 [label="gini = 0.42\nsamples = 30\nvalue = [9, 21]"] ;
724 -> 725 ;
726 [label="gini = 0.32\nsamples = 5\nvalue = [4, 1]"] ;
724 -> 726 ;
727 [label="gini = 0.0\nsamples = 8\nvalue = [0, 8]"] ;
721 -> 727 ;
728 [label="WORK_STATE_MASSACHUSETTS <= 0.5\ngini = 0.245\nsamples = 7\nvalue = [6, 1]"] ;
720 -> 728 ;
729 [label="gini = 0.0\nsamples = 6\nvalue = [6, 0]"] ;
728 -> 729 ;
730 [label="gini = 0.0\nsamples = 1\nvalue = [0, 1]"] ;
728 -> 730 ;
731 [label="PAID_WAGE_PER_YEAR <= 78600.0\ngini = 0.208\nsamples = 17\nvalue = [2, 15]"] ;
719 -> 731 ;
732 [label="CASE_RECEIVED_WEEKDAY_Thursday <= 0.5\ngini = 0.117\nsamples = 16\nvalue = [1, 15]"] ;
731 -> 732 ;
733 [label="gini = 0.0\nsamples = 14\nvalue = [0, 14]"] ;
732 -> 733 ;
734 [label="CASE_RECEIVED_MONTH_March <= 0.5\ngini = 0.5\nsamples = 2\nvalue = [1, 1]"] ;
732 -> 734 ;
735 [label="gini = 0.0\nsamples = 1\nvalue = [0, 1]"] ;
734 -> 735 ;
736 [label="gini = 0.0\nsamples = 1\nvalue = [1, 0]"] ;
734 -> 736 ;
737 [label="gini = 0.0\nsamples = 1\nvalue = [1, 0]"] ;
731 -> 737 ;
738 [label="VISA_CLASS_greencard <= 0.5\ngini = 0.153\nsamples = 12\nvalue = [11, 1]"] ;
718 -> 738 ;
739 [label="gini = 0.0\nsamples = 1\nvalue = [0, 1]"] ;
738 -> 739 ;
740 [label="gini = 0.0\nsamples = 11\nvalue = [11, 0]"] ;
738 -> 740 ;
741 [label="CASE_PROCESSING_DURATION <= 597.5\ngini = 0.174\nsamples = 83\nvalue = [75, 8]"] ;
717 -> 741 ;
742 [label="CASE_RECEIVED_WEEKDAY_Thursday <= 0.5\ngini = 0.034\nsamples = 58\nvalue = [57, 1]"] ;
741 -> 742 ;
743 [label="gini = 0.0\nsamples = 41\nvalue = [41, 0]"] ;
742 -> 743 ;
744 [label="CASE_PROCESSING_DURATION <= 527.5\ngini = 0.111\nsamples = 17\nvalue = [16, 1]"] ;
742 -> 744 ;
745 [label="VISA_CLASS_greencard <= 0.5\ngini = 0.278\nsamples = 6\nvalue = [5, 1]"] ;
744 -> 745 ;
746 [label="gini = 0.0\nsamples = 5\nvalue = [5, 0]"] ;
745 -> 746 ;
747 [label="gini = 0.0\nsamples = 1\nvalue = [0, 1]"] ;
745 -> 747 ;
748 [label="gini = 0.0\nsamples = 11\nvalue = [11, 0]"] ;
744 -> 748 ;
749 [label="CASE_PROCESSING_DURATION <= 621.5\ngini = 0.403\nsamples = 25\nvalue = [18, 7]"] ;
741 -> 749 ;
750 [label="PREVAILING_WAGE_PER_YEAR <= 59463.0\ngini = 0.375\nsamples = 8\nvalue = [2, 6]"] ;
749 -> 750 ;
751 [label="gini = 0.0\nsamples = 6\nvalue = [0, 6]"] ;
750 -> 751 ;
752 [label="gini = 0.0\nsamples = 2\nvalue = [2, 0]"] ;
750 -> 752 ;
753 [label="CASE_RECEIVED_WEEKDAY_Thursday <= 0.5\ngini = 0.111\nsamples = 17\nvalue = [16, 1]"] ;
749 -> 753 ;
754 [label="gini = 0.0\nsamples = 13\nvalue = [13, 0]"] ;
753 -> 754 ;
755 [label="CASE_RECEIVED_MONTH_April <= 0.5\ngini = 0.375\nsamples = 4\nvalue = [3, 1]"] ;
753 -> 755 ;
756 [label="gini = 0.0\nsamples = 3\nvalue = [3, 0]"] ;
755 -> 756 ;
757 [label="gini = 0.0\nsamples = 1\nvalue = [0, 1]"] ;
755 -> 757 ;
758 [label="CASE_RECEIVED_MONTH_March <= 0.5\ngini = 0.182\nsamples = 138\nvalue = [124, 14]"] ;
650 -> 758 ;
759 [label="PAID_WAGE_PER_YEAR <= 45040.0\ngini = 0.138\nsamples = 134\nvalue = [124, 10]"] ;
758 -> 759 ;
760 [label="VISA_CLASS_greencard <= 0.5\ngini = 0.426\nsamples = 26\nvalue = [18, 8]"] ;
759 -> 760 ;
761 [label="MONTH_September <= 0.5\ngini = 0.32\nsamples = 10\nvalue = [2, 8]"] ;
760 -> 761 ;
762 [label="gini = 0.0\nsamples = 8\nvalue = [0, 8]"] ;
761 -> 762 ;
763 [label="gini = 0.0\nsamples = 2\nvalue = [2, 0]"] ;
761 -> 763 ;
764 [label="gini = 0.0\nsamples = 16\nvalue = [16, 0]"] ;
760 -> 764 ;
765 [label="ANNUAL_PAID_PREVAILING_WAGE_RATIO <= 1.614\ngini = 0.036\nsamples = 108\nvalue = [106, 2]"] ;
759 -> 765 ;
766 [label="CASE_PROCESSING_DURATION <= 1074.0\ngini = 0.019\nsamples = 106\nvalue = [105, 1]"] ;
765 -> 766 ;
767 [label="MONTH_May <= 0.5\ngini = 0.1\nsamples = 19\nvalue = [18, 1]"] ;
766 -> 767 ;
768 [label="gini = 0.0\nsamples = 17\nvalue = [17, 0]"] ;
767 -> 768 ;
769 [label="VISA_CLASS_greencard <= 0.5\ngini = 0.5\nsamples = 2\nvalue = [1, 1]"] ;
767 -> 769 ;
770 [label="gini = 0.0\nsamples = 1\nvalue = [0, 1]"] ;
769 -> 770 ;
771 [label="gini = 0.0\nsamples = 1\nvalue = [1, 0]"] ;
769 -> 771 ;
772 [label="gini = 0.0\nsamples = 87\nvalue = [87, 0]"] ;
766 -> 772 ;
773 [label="CASE_RECEIVED_MONTH_August <= 0.5\ngini = 0.5\nsamples = 2\nvalue = [1, 1]"] ;
765 -> 773 ;
774 [label="gini = 0.0\nsamples = 1\nvalue = [0, 1]"] ;
773 -> 774 ;
775 [label="gini = 0.0\nsamples = 1\nvalue = [1, 0]"] ;
773 -> 775 ;
776 [label="gini = 0.0\nsamples = 4\nvalue = [0, 4]"] ;
758 -> 776 ;
}